\data\
ngram 1=7936
ngram 2=23444
ngram 3=27138

\1-grams:
-4.428042	<unk>	0
0	<s>	-0.39958444
-0.9279356	</s>	0
-3.8193018	visserligen	-0.0632975
-1.9834362	ar	-0.23323639
-4.31631	lader	-0.0632975
-2.4083538	ett	-0.17485337
-4.131418	harligt	-0.0632975
-4.31631	naturmaterial	-0.0632975
-2.4748628	men	-0.18959896
-2.2609458	det	-0.21478637
-3.0571332	lite	-0.072891906
-4.31631	besvarligt	-0.0632975
-1.8764982	att	-0.28248525
-4.31631	rengora	-0.0632975
-2.422823	so	-0.17149028
-2.649425	jag	-0.1405313
-3.4378574	brukar	-0.0632975
-4.31631	borsta	-0.0632975
-4.31631	jackan	-0.0632975
-3.711629	avgorande	-0.0632975
-1.9204699	for	-0.2591299
-2.422823	den	-0.1555982
-3.625418	ekonomiska	-0.0632975
-3.9627936	utvecklingen	-0.0632975
-3.8193018	annars	-0.0632975
-4.131418	arbetsmarknadens	-0.0632975
-4.31631	parter	-0.0632975
-3.625418	verkligen	-0.0632975
-2.6838057	blir	-0.12784119
-3.9627936	overens	-0.0632975
-2.1698542	om	-0.2613553
-4.31631	lonebildningen	-0.0632975
-1.5634758	och	-0.15191486
-3.9627936	fornyelse	-0.0632975
-3.625418	bilden	-0.10475273
-2.0613518	av	-0.17223023
-2.6928437	vi	-0.1583737
-3.711629	lever	-0.12706538
-1.7534994	i	-0.22206344
-3.237961	mest	-0.087692924
-4.31631	jamstallda	-0.0632975
-4.131418	nationer	-0.0632975
-2.4975603	kan	-0.23349157
-2.8442862	vara	-0.14755884
-2.1644104	en	-0.15105484
-3.711629	anledning	-0.113540724
-2.0969052	till	-0.20127635
-4.131418	relationer	-0.0632975
-2.7953744	gor	-0.19306555
-4.31631	kras	-0.0632975
-4.31631	statsministerns	-0.0632975
-4.31631	oklara	-0.0632975
-3.9627936	besked	-0.0632975
-2.6838057	nar	-0.34087458
-2.3506906	de	-0.15785612
-4.131418	utlovade	-0.0632975
-4.31631	forandringarna	-0.0632975
-2.566888	ska	-0.14650919
-4.31631	genomforas	-0.0632975
-3.9627936	skapar	-0.0632975
-4.31631	osakerhet	-0.0632975
-3.237961	hos	-0.14991684
-4.131418	statsroden	-0.0632975
-3.1015918	fyra	-0.35723788
-3.0571332	tre	-0.25876132
-3.625418	nittiosex	-0.0632975
-4.131418	trehundrafyrtiosju	-0.20183489
-4.31631	forutsattning	-0.0632975
-4.31631	studierna	-0.0632975
-3.711629	utomlands	-0.0632975
-4.31631	tillgodoraknas	-0.0632975
-3.625418	din	-0.0632975
-3.3466105	svenska	-0.08058186
-4.31631	examen	-0.0632975
-2.8442862	mycket	-0.10158295
-3.9627936	gors	-0.0632975
-3.237961	redan	-0.13350077
-3.125653	inom	-0.0632975
-4.31631	ramen	-0.0632975
-4.131418	befintliga	-0.0632975
-4.31631	befogenheter	-0.0632975
-1.8764982	som	-0.2253376
-2.2781746	inte	-0.20627894
-4.31631	forsorja	-0.0632975
-2.330403	sig	-0.2771883
-2.870976	finns	-0.23713551
-4.31631	trygghetsnat	-0.0632975
-4.31631	grundskydd	-0.0632975
-2.8070955	tvo	-0.26034796
-3.237961	sju	-0.30244628
-3.9627936	nittiosju	-0.0632975
-3.9627936	tvohundrasjutton	-0.34700584
-2.5339983	hon	-0.1260397
-3.5535185	ville	-0.0854177
-4.131418	samla	-0.0632975
-3.3072956	ihop	-0.10475273
-4.131418	ingredienser	-0.0632975
-4.31631	rejal	-0.0632975
-4.31631	soppa	-0.0632975
-2.899414	kunde	-0.13213384
-3.8193018	racka	-0.0632975
-3.8193018	monader	-0.0632975
-2.857426	hur	-0.18702027
-2.7310026	an	-0.1483754
-4.131418	statligt	-0.0632975
-3.9627936	intresse	-0.0632975
-3.9627936	stodja	-0.0632975
-3.711629	filmen	-0.10475273
-2.6175675	eller	-0.097885706
-2.398969	var	-0.2077862
-4.131418	enkelt	-0.10475273
-4.131418	rokade	-0.0632975
-4.31631	vinter	-0.0632975
-3.237961	forsta	-0.0632975
-4.31631	inbyggarna	-0.0632975
-3.9627936	sokte	-0.0632975
-3.625418	dit	-0.18238527
-3.4378574	anser	-0.11949975
-2.7410903	ockso	-0.14249273
-4.31631	tullhusets	-0.0632975
-4.131418	lage	-0.0632975
-3.491849	alldeles	-0.14941508
-4.31631	invid	-0.0632975
-4.31631	gasthamnen	-0.0632975
-4.31631	lampar	-0.0632975
-3.8193018	utmarkt	-0.0632975
-4.31631	andamolet	-0.0632975
-4.131418	juryn	-0.0632975
-2.0969052	har	-0.22238892
-4.131418	rott	-0.0632975
-3.1511261	nogon	-0.078878805
-3.9627936	helst	-0.0632975
-4.31631	tvekan	-0.0632975
-4.31631	alltihopa	-0.0632975
-4.31631	forfalskat	-0.0632975
-3.178187	s	-0.41167828
-3.0787938	a	-0.5817564
-3.3898418	g	-0.34161323
-3.3072956	n	-0.3794018
-4.131418	tyvarr	-0.0632975
-3.0168061	ha	-0.10248625
-4.131418	nott	-0.0632975
-3.3898418	sitt	-0.06329753
-3.4378574	slut	-0.20079775
-3.9627936	nittiotvo	-0.0632975
-2.4083538	tusen	-0.08603623
-4.31631	sexhundrafjorton	-0.0632975
-4.31631	kandes	-0.0632975
-4.131418	skont	-0.15058674
-4.31631	bi	-0.0632975
-4.31631	omkramad	-0.0632975
-4.131418	syster	-0.20183489
-4.131418	problemet	-0.0632975
-4.31631	tillsatserna	-0.0632975
-3.2070463	flera	-0.10605292
-3.5535185	gonger	-0.0854177
-3.625418	ungefar	-0.10475273
-4.31631	desamma	-0.0632975
-3.711629	billigare	-0.113540724
-4.131418	effektiv	-0.0632975
-4.31631	rening	-0.0632975
-3.2712462	kvinnor	-0.1435726
-4.131418	ljuga	-0.0632975
-2.8442862	sin	-0.081641205
-3.8193018	older	-0.25694183
-3.2070463	aldrig	-0.09049012
-4.31631	skonhetsopererat	-0.0632975
-3.9627936	enklare	-0.0632975
-4.131418	jobben	-0.0632975
-4.131418	langst	-0.0632975
-2.997965	ner	-0.2520366
-4.31631	hierarkin	-0.0632975
-4.131418	skots	-0.0632975
-3.178187	dock	-0.12988748
-3.4378574	fortfarande	-0.087692924
-4.31631	overvagande	-0.0632975
-3.8193018	delen	-0.25694183
-3.0787938	detta	-0.1279189
-4.31631	ates	-0.0632975
-3.2070463	alltid	-0.0632975
-4.31631	knapriga	-0.0632975
-4.31631	pommes	-0.0632975
-4.31631	frites	-0.0632975
-4.131418	liten	-0.0632975
-4.131418	skol	-0.0632975
-2.0592234	med	-0.1765559
-4.31631	majonnas	-0.0632975
-4.31631	dippa	-0.0632975
-3.5535185	forstos	-0.098582774
-4.31631	rapporterna	-0.0632975
-2.9799078	blev	-0.10870779
-4.31631	fulltraff	-0.0632975
-4.31631	transnationella	-0.0632975
-4.31631	nittionio	-0.0632975
-4.31631	trehundrasjuttiosju	-0.0632975
-3.9627936	mamma	-0.10475273
-3.1511261	tillbaka	-0.251187
-3.0571332	satt	-0.2146083
-4.31631	doktorns	-0.0632975
-4.31631	mottagningsrum	-0.0632975
-3.0787938	kom	-0.14487736
-2.674952	in	-0.38541275
-4.31631	beviljat	-0.0632975
-3.9627936	lonen	-0.0632975
-4.31631	loper	-0.0632975
-3.1015918	do	-0.10806395
-3.9627936	risk	-0.0632975
-3.9627936	forlora	-0.0632975
-3.237961	pengar	-0.14036332
-4.31631	ordningsmakten	-0.0632975
-3.8193018	lat	-0.0632975
-2.8849623	dem	-0.18580939
-2.9143631	fo	-0.08416051
-4.31631	skymt	-0.0632975
-3.2712462	innan	-0.12495141
-4.31631	oter	-0.0632975
-3.9627936	bar	-0.0632975
-4.131418	hemot	-0.20183489
-3.0571332	fem	-0.28389856
-3.2070463	sex	-0.33159387
-3.9627936	sjuttiootta	-0.0632975
-4.131418	trehundrasjuttio	-0.20183489
-3.1511261	o	-0.42880213
-3.2712462	r	-0.3706274
-4.31631	hammerdal	-0.0632975
-4.31631	ekenassjon	-0.0632975
-4.31631	klagstorp	-0.0632975
-4.31631	paris	-0.0632975
-4.131418	traditionella	-0.0632975
-4.31631	landmarke	-0.0632975
-2.5153973	fron	-0.145211
-4.31631	positionen	-0.0632975
-3.625418	mojligheter	-0.2898724
-4.31631	otervinna	-0.0632975
-3.9627936	fortroende	-0.0632975
-3.9627936	forlorade	-0.0632975
-4.131418	valjare	-0.0632975
-4.31631	takt	-0.0632975
-4.131418	ekonomin	-0.0632975
-4.31631	forbattras	-0.0632975
-3.125653	ingen	-0.07012893
-4.31631	gymnasiekompetens	-0.0632975
-3.625418	dag	-0.07185372
-3.9627936	kravs	-0.0632975
-4.31631	stadjobb	-0.0632975
-1.9377775	po	-0.20427513
-4.131418	sjukhus	-0.12706538
-4.31631	kassajobb	-0.0632975
-4.31631	skota	-0.0632975
-4.31631	tomburksautomaterna	-0.0632975
-4.31631	handeln	-0.0632975
-3.9627936	partiet	-0.0632975
-3.5535185	litet	-0.0632975
-4.31631	harmoniskt	-0.0632975
-3.237961	nog	-0.06329753
-3.491849	snabbt	-0.0632975
-3.3898418	kunna	-0.07940792
-4.131418	anpassa	-0.20183489
-4.31631	dagstempot	-0.0632975
-4.131418	vacka	-0.0632975
-3.9627936	uppmarksamhet	-0.0632975
-3.711629	egna	-0.0632975
-3.625418	saken	-0.18238527
-3.125653	nya	-0.08475075
-3.4378574	varlden	-0.0854177
-3.9627936	naringslivets	-0.0632975
-4.31631	elit	-0.0632975
-4.31631	finansiella	-0.0632975
-4.31631	marknaderna	-0.0632975
-4.131418	alltmer	-0.0632975
-4.31631	dikterat	-0.0632975
-3.9627936	villkoren	-0.0632975
-4.131418	produktionen	-0.0632975
-4.131418	fortsatt	-0.0632975
-4.131418	otstramning	-0.0632975
-4.131418	barnfamiljerna	-0.0632975
-4.131418	arbetslosa	-0.0632975
-4.131418	betalat	-0.0632975
-3.8193018	hogsta	-0.0632975
-3.711629	priset	-0.0632975
-4.31631	budgetsaneringen	-0.0632975
-2.5878882	man	-0.1671045
-3.711629	berattar	-0.113540724
-4.31631	sanningsenligt	-0.0632975
-3.625418	privata	-0.0632975
-4.31631	betros	-0.0632975
-4.31631	inneha	-0.0632975
-4.31631	ambetet	-0.0632975
-4.31631	varldens	-0.0632975
-4.31631	ledande	-0.0632975
-4.31631	nation	-0.0632975
-4.31631	cykla	-0.0632975
-3.8193018	forbi	-0.0632975
-4.31631	angarna	-0.0632975
-4.31631	golfbanan	-0.0632975
-3.3898418	otta	-0.3197497
-3.8193018	femtiotvo	-0.0632975
-4.31631	fyrahundrasjuttionio	-0.0632975
-3.9627936	sjalvklart	-0.0632975
-4.31631	flesta	-0.0632975
-3.711629	arbeta	-0.10475273
-3.711629	utanfor	-0.0632975
-4.131418	hemmet	-0.0632975
-3.5535185	politiker	-0.09401209
-4.31631	socialarbetare	-0.0632975
-3.8193018	slor	-0.0632975
-4.131418	larm	-0.20183489
-4.31631	ungdomsproblem	-0.0632975
-4.31631	spritmissbruk	-0.0632975
-2.8849623	mer	-0.15770282
-3.9627936	omfattande	-0.0632975
-3.625418	trott	-0.18238527
-3.2070463	denna	-0.07532396
-3.9627936	relativt	-0.0632975
-3.8193018	lilla	-0.0632975
-4.31631	kommun	-0.0632975
-4.31631	nybildad	-0.0632975
-4.31631	foraldraforening	-0.0632975
-3.5535185	kraver	-0.0632975
-2.8442862	nu	-0.18810704
-3.9627936	politikerna	-0.0632975
-4.131418	skjuter	-0.0632975
-3.625418	beslut	-0.0632975
-3.711629	framtiden	-0.18238527
-3.125653	e	-0.5128143
-3.491849	m	-0.18118206
-4.31631	typiskt	-0.0632975
-4.31631	blyg	-0.0632975
-3.625418	boda	-0.06329753
-4.31631	vaskorna	-0.0632975
-4.131418	inneholl	-0.0632975
-3.3466105	inga	-0.096139096
-3.9627936	alls	-0.098582774
-2.4693692	han	-0.14624982
-3.1015918	ta	-0.13497445
-3.8193018	jobbet	-0.0632975
-4.131418	argument	-0.0632975
-4.31631	framforts	-0.0632975
-3.0787938	bland	-0.20590551
-4.31631	kreativiteten	-0.0632975
-2.8442862	moste	-0.1510606
-4.31631	blomma	-0.0632975
-3.4378574	snart	-0.06329753
-3.625418	borjar	-0.0632975
-2.7728403	alla	-0.10515005
-3.9627936	rakna	-0.15058674
-2.5878882	ut	-0.2940562
-3.0168061	honom	-0.19859284
-4.31631	fortid	-0.0632975
-3.036502	stor	-0.09409384
-3.178187	lange	-0.17489344
-3.8193018	titta	-0.12706538
-3.0787938	ju	-0.12678266
-3.9627936	press	-0.34700584
-3.5535185	er	-0.098582774
-3.3072956	l	-0.3363801
-3.178187	t	-0.51699567
-4.31631	knut	-0.0632975
-4.31631	bjorkman	-0.0632975
-4.31631	elise	-0.0632975
-4.131418	holgersson	-0.20183489
-4.131418	svaga	-0.0632975
-4.31631	postor	-0.0632975
-4.131418	spara	-0.0632975
-4.31631	sondagen	-0.0632975
-4.31631	ryssarna	-0.0632975
-3.4378574	sjalva	-0.16197382
-4.31631	frascha	-0.0632975
-2.6175675	upp	-0.32052565
-4.31631	z	-0.0632975
-4.31631	gratinerade	-0.0632975
-4.31631	hummer	-0.0632975
-4.31631	provade	-0.0632975
-2.721144	bara	-0.13030562
-4.31631	halvljummen	-0.0632975
-4.31631	serverades	-0.0632975
-4.31631	halvt	-0.0632975
-4.31631	fardigrostad	-0.0632975
-3.8193018	vanlig	-0.0632975
-4.31631	formfranska	-0.0632975
-3.3072956	mannen	-0.07532396
-4.31631	betalade	-0.0632975
-4.31631	kontant	-0.0632975
-3.8193018	gav	-0.0632975
-4.31631	generost	-0.0632975
-4.31631	dricks	-0.0632975
-2.997965	fick	-0.1400449
-4.31631	rykte	-0.0632975
-4.31631	stadens	-0.0632975
-3.491849	basta	-0.0632975
-4.31631	kunder	-0.0632975
-3.9627936	ens	-0.0632975
-4.131418	myggen	-0.0632975
-3.0168061	varit	-0.096128695
-3.0168061	nogot	-0.11811704
-3.3072956	storre	-0.07940792
-3.3898418	problem	-0.17659877
-4.131418	latt	-0.0632975
-4.31631	bris	-0.0632975
-4.31631	blost	-0.0632975
-3.4378574	dagar	-0.0854177
-3.9627936	hollit	-0.0632975
-4.131418	avstond	-0.20183489
-3.8193018	froga	-0.113540724
-2.7310026	dar	-0.15437548
-3.625418	trettio	-0.098582774
-4.31631	sjuhundranittiotvo	-0.0632975
-3.9627936	sjuttio	-0.0632975
-3.9627936	tvohundranittiosju	-0.34700584
-3.625418	drar	-0.0632975
-3.0168061	fram	-0.26415628
-4.31631	fryser	-0.0632975
-3.625418	marken	-0.10475273
-4.131418	ogonblick	-0.0632975
-3.9627936	dor	-0.0632975
-3.491849	u	-0.29528806
-3.3898418	p	-0.251187
-4.131418	regionala	-0.0632975
-4.31631	parlament	-0.0632975
-4.131418	diskuteras	-0.0632975
-4.31631	regionberedningen	-0.0632975
-2.997965	genom	-0.15888038
-4.31631	mosa	-0.0632975
-3.625418	vort	-0.0632975
-4.31631	stormaktsvalde	-0.0632975
-3.3072956	gjorde	-0.0819404
-3.0168061	oss	-0.15019707
-3.8193018	politiskt	-0.12706538
-4.31631	ointressanta	-0.0632975
-3.9627936	omvarlden	-0.25694183
-4.31631	felfri	-0.0632975
-3.8193018	musik	-0.12706538
-4.31631	trokigt	-0.0632975
-3.3898418	visste	-0.23778532
-3.711629	nogonting	-0.113540724
-3.0571332	bra	-0.14101751
-3.9627936	eld	-0.15058674
-3.8193018	femton	-0.0632975
-4.31631	etthundratrettiotre	-0.0632975
-4.131418	femhundrasjuttiotvo	-0.20183489
-3.8193018	fyrtioett	-0.0632975
-4.31631	fyrahundrasextiotvo	-0.0632975
-3.9627936	sexhundraottiofem	-0.34700584
-4.31631	forbaskad	-0.0632975
-4.31631	naven	-0.0632975
-4.31631	strykbrada	-0.0632975
-4.31631	grymtar	-0.0632975
-4.31631	ohorbart	-0.0632975
-3.5535185	tanker	-0.09401209
-4.31631	subventioneringen	-0.0632975
-3.8193018	stallet	-0.101707906
-3.8193018	fordes	-0.25694183
-2.649425	over	-0.15672903
-4.131418	sankt	-0.0632975
-4.31631	bokmoms	-0.0632975
-2.7514179	skulle	-0.1483754
-3.4378574	sakert	-0.0632975
-4.31631	potentare	-0.0632975
-4.31631	bokkultur	-0.0632975
-3.3898418	fanns	-0.12970915
-3.5535185	trodde	-0.20056759
-3.711629	ung	-0.13077118
-3.9627936	svart	-0.0632975
-3.625418	framtid	-0.10475273
-3.125653	mig	-0.12367421
-3.9627936	skodespelare	-0.15058674
-4.131418	tjugosju	-0.0632975
-4.31631	niohundrasextiotre	-0.0632975
-4.131418	vinna	-0.0632975
-4.31631	ekonomipriset	-0.0632975
-4.131418	tolamod	-0.0632975
-3.491849	longt	-0.087692924
-3.3466105	liv	-0.23858634
-4.31631	oxarnas	-0.0632975
-4.31631	romanden	-0.0632975
-4.31631	stiger	-0.0632975
-4.131418	bakgrunden	-0.0632975
-3.9627936	djuren	-0.0632975
-4.31631	reser	-0.0632975
-4.131418	legat	-0.0632975
-4.31631	sovit	-0.0632975
-3.8193018	forhandlingarna	-0.12706538
-4.31631	pogick	-0.0632975
-3.4378574	sista	-0.0854177
-4.131418	underbara	-0.0632975
-3.711629	vackra	-0.0632975
-3.9627936	brev	-0.0632975
-2.3225462	punkt	-1.5609392
-4.31631	olivia	-0.0632975
-4.31631	lundin	-0.0632975
-4.31631	hjarup	-0.0632975
-4.31631	enskede	-0.0632975
-4.31631	sjuntorp	-0.0632975
-3.3466105	saker	-0.0854177
-4.131418	frogar	-0.0632975
-4.131418	teater	-0.20183489
-3.9627936	gladje	-0.15058674
-4.31631	stycken	-0.0632975
-4.131418	vilse	-0.20183489
-3.5535185	ny	-0.0632975
-3.3466105	vag	-0.22544104
-4.31631	lasse	-0.0632975
-4.31631	kjell	-0.0632975
-3.3466105	sett	-0.09214392
-4.31631	gubben	-0.0632975
-4.131418	mittemot	-0.0632975
-4.31631	leta	-0.0632975
-4.31631	tomburkar	-0.0632975
-4.31631	kvallsmorkret	-0.0632975
-3.625418	tjugootta	-0.0632975
-4.31631	sjuhundratjugo	-0.0632975
-4.31631	samhalle	-0.0632975
-3.4378574	tar	-0.08353068
-3.625418	god	-0.06329753
-3.711629	hand	-0.113540724
-3.0168061	sina	-0.08327941
-3.2712462	gamla	-0.0632975
-4.31631	forslosar	-0.0632975
-4.31631	manniskors	-0.0632975
-4.31631	arbetsvilja	-0.0632975
-3.8193018	oklart	-0.25694183
-3.1511261	bode	-0.0632975
-4.131418	posten	-0.0632975
-4.31631	tillsattas	-0.0632975
-3.625418	vilken	-0.0632975
-4.31631	profil	-0.0632975
-4.31631	personen	-0.0632975
-3.8193018	innebar	-0.25694183
-3.711629	finnas	-0.0632975
-3.711629	tillrackligt	-0.113540724
-2.9799078	monga	-0.1107715
-3.8193018	anstallda	-0.0632975
-3.9627936	personalen	-0.0632975
-3.5535185	utbildning	-0.20814227
-4.131418	kompetens	-0.0632975
-4.131418	berattat	-0.15058674
-3.8193018	lyckas	-0.12706538
-4.131418	klattra	-0.20183489
-4.131418	hoppa	-0.0632975
-4.31631	fonstret	-0.0632975
-4.131418	rummet	-0.0632975
-3.9627936	innanfor	-0.0632975
-4.31631	entren	-0.0632975
-4.131418	tvohundraottiofyra	-0.20183489
-3.4378574	blivit	-0.08353068
-4.131418	ljus	-0.0632975
-3.711629	vacker	-0.0632975
-4.131418	bok	-0.0632975
-4.31631	vagverket	-0.0632975
-3.711629	saga	-0.13077118
-4.31631	korkort	-0.0632975
-3.8193018	handlar	-0.113540724
-4.31631	motet	-0.0632975
-4.31631	stallas	-0.0632975
-3.0787938	sedan	-0.08769296
-3.2712462	polisen	-0.09691512
-3.3072956	gjort	-0.12083073
-4.31631	razzia	-0.0632975
-3.0168061	allt	-0.098582774
-4.31631	tilldragit	-0.0632975
-4.31631	daghemmet	-0.0632975
-4.31631	berattas	-0.0632975
-3.9627936	trettionio	-0.0632975
-4.131418	femhundrafem	-0.20183489
-4.131418	sexton	-0.0632975
-3.5535185	enligt	-0.0632975
-2.6332042	hade	-0.1500794
-4.31631	traktorn	-0.0632975
-3.3898418	kommit	-0.087692924
-4.131418	sporet	-0.0632975
-4.31631	lokforaren	-0.0632975
-4.131418	hann	-0.0632975
-4.131418	stanna	-0.0632975
-3.178187	tid	-0.1853009
-4.31631	missnoje	-0.0632975
-4.31631	bilfirma	-0.0632975
-3.5535185	hor	-0.0632975
-4.31631	namndens	-0.0632975
-4.131418	vanligaste	-0.0632975
-4.131418	arenden	-0.20183489
-4.31631	valomgongen	-0.0632975
-4.131418	utslagsgivande	-0.0632975
-4.31631	framgong	-0.0632975
-3.8193018	ryska	-0.0632975
-4.31631	separatisterna	-0.0632975
-3.4378574	k	-0.24134408
-4.31631	raddades	-0.0632975
-4.131418	helikopter	-0.0632975
-4.31631	livbot	-0.0632975
-4.31631	andades	-0.0632975
-3.9627936	skrattade	-0.0632975
-4.31631	lovade	-0.0632975
-2.9459002	komma	-0.13493429
-3.9627936	betala	-0.12706538
-4.131418	resten	-0.0632975
-3.625418	nittio	-0.09401209
-4.31631	fyrahundrafjorton	-0.0632975
-4.31631	etttusen	-0.0632975
-4.31631	fyrahundraottionio	-0.0632975
-4.31631	uppnott	-0.0632975
-4.31631	kostat	-0.0632975
-3.491849	pengarna	-0.087692924
-3.8193018	sociala	-0.0632975
-4.31631	drygade	-0.0632975
-4.31631	deltidsarbete	-0.0632975
-4.31631	fabrik	-0.0632975
-4.31631	tillverkade	-0.0632975
-4.31631	rakapparater	-0.0632975
-3.8193018	tretton	-0.0632975
-4.31631	fyrahundrasextiosju	-0.0632975
-3.8193018	fyrtionio	-0.0632975
-4.31631	femhundraotta	-0.0632975
-4.131418	hord	-0.0632975
-4.131418	small	-0.0632975
-3.8193018	huvudet	-0.0632975
-4.131418	tillfalligt	-0.0632975
-4.31631	tuppade	-0.0632975
-3.2070463	stora	-0.07474368
-4.131418	yrkeskategorierna	-0.0632975
-4.31631	medlemskoren	-0.0632975
-4.31631	administratorer	-0.0632975
-4.31631	kanslister	-0.0632975
-4.31631	assistenter	-0.0632975
-3.491849	kanner	-0.09049012
-3.625418	behovs	-0.098582774
-4.31631	nytandning	-0.0632975
-4.31631	poangen	-0.0632975
-4.31631	tillvaxtformoga	-0.0632975
-4.31631	inbyggd	-0.0632975
-4.31631	forsvarsmakten	-0.0632975
-3.9627936	behovde	-0.0632975
-4.131418	bryta	-0.0632975
-3.711629	familjen	-0.113540724
-4.131418	finna	-0.0632975
-3.9627936	eget	-0.0632975
-4.131418	grubblar	-0.0632975
-4.31631	konsulterar	-0.0632975
-4.31631	smakvilliga	-0.0632975
-3.625418	vanner	-0.10475273
-4.31631	gloggens	-0.0632975
-4.31631	styrka	-0.0632975
-4.31631	hilding	-0.0632975
-4.31631	brannstrom	-0.0632975
-4.31631	julia	-0.0632975
-4.31631	blomqvist	-0.0632975
-4.31631	bratislava	-0.0632975
-4.31631	debatt	-0.0632975
-4.31631	lyssnar	-0.0632975
-3.8193018	kvallen	-0.10475273
-4.31631	sate	-0.0632975
-3.3466105	annat	-0.13055414
-4.31631	adressbok	-0.0632975
-3.9627936	arton	-0.0632975
-3.2712462	tidigare	-0.114048585
-4.131418	instruktion	-0.20183489
-3.711629	long	-0.16323985
-4.131418	sikt	-0.0632975
-3.9627936	aktier	-0.0632975
-3.625418	ge	-0.0632975
-4.131418	avkastningen	-0.0632975
-4.31631	pensionssparande	-0.0632975
-4.31631	longsiktiga	-0.0632975
-4.31631	sparandet	-0.0632975
-4.131418	kostar	-0.0632975
-3.3898418	runt	-0.087692924
-3.625418	tjugo	-0.0632975
-3.711629	kronor	-0.10475273
-4.31631	hyra	-0.0632975
-4.31631	tornet	-0.0632975
-4.31631	dygn	-0.0632975
-4.31631	sliter	-0.0632975
-4.31631	nerverna	-0.0632975
-3.237961	go	-0.14096667
-3.625418	ensam	-0.15058674
-4.31631	djungeln	-0.0632975
-3.8193018	marker	-0.0632975
-3.3898418	sjalv	-0.101707906
-3.491849	vissa	-0.09049012
-4.31631	skillnader	-0.0632975
-3.178187	sager	-0.23019424
-4.131418	tror	-0.12706538
-3.5535185	beror	-0.22123179
-3.8193018	sjukhuset	-0.113540724
-3.5535185	emot	-0.0632975
-3.0571332	helt	-0.15211694
-2.9625711	andra	-0.09097548
-3.9627936	patienter	-0.0632975
-4.31631	dryg	-0.0632975
-4.131418	timme	-0.0632975
-3.711629	pogor	-0.0632975
-3.9627936	sorts	-0.0632975
-4.31631	ordrik	-0.0632975
-4.31631	forgoring	-0.0632975
-4.31631	terapeutiskt	-0.0632975
-4.31631	oterhollen	-0.0632975
-3.9627936	ton	-0.15058674
-3.711629	visa	-0.10475273
-3.8193018	farligt	-0.0632975
-4.31631	halsan	-0.0632975
-4.31631	roka	-0.0632975
-3.8193018	oterkommer	-0.12706538
-3.3072956	gong	-0.14788008
-4.31631	manniskans	-0.0632975
-3.625418	mojlighet	-0.2898724
-3.8193018	valja	-0.0632975
-4.31631	letar	-0.0632975
-2.8070955	efter	-0.13310435
-3.3072956	varje	-0.07596622
-3.8193018	tecken	-0.25694183
-4.31631	vacklar	-0.0632975
-3.8193018	satta	-0.0632975
-3.3466105	nasta	-0.19420971
-4.31631	stot	-0.0632975
-4.31631	hustruns	-0.0632975
-3.8193018	dod	-0.0632975
-3.3466105	nastan	-0.0854177
-4.31631	fordubblat	-0.0632975
-4.131418	inkomster	-0.0632975
-3.2070463	dessa	-0.0632975
-3.237961	fall	-0.07596622
-4.31631	besvarliga	-0.0632975
-4.31631	svorhanterliga	-0.0632975
-4.31631	reformator	-0.0632975
-3.0787938	skall	-0.0819404
-4.31631	foreslo	-0.0632975
-4.131418	nytt	-0.0632975
-4.31631	betygssystem	-0.0632975
-4.31631	mater	-0.0632975
-4.131418	kunskaper	-0.0632975
-2.9459002	utan	-0.25224775
-4.31631	jamfora	-0.0632975
-3.9627936	elever	-0.0632975
-3.491849	varandra	-0.21728247
-3.711629	trettioett	-0.0632975
-4.31631	sjuhundrasextiootta	-0.0632975
-4.31631	vetenskapliga	-0.0632975
-4.31631	undersokningar	-0.0632975
-3.5535185	visar	-0.22123179
-3.1015918	barn	-0.1835106
-3.237961	gott	-0.1316688
-4.31631	forskola	-0.0632975
-3.8193018	klarar	-0.0632975
-3.1511261	battre	-0.17198326
-4.31631	grundskolan	-0.0632975
-4.31631	slippa	-0.0632975
-4.31631	fjask	-0.0632975
-4.31631	flask	-0.0632975
-4.31631	valtider	-0.0632975
-3.625418	ringde	-0.0632975
-4.31631	anonyma	-0.0632975
-3.3466105	gora	-0.13569161
-4.131418	sjukvord	-0.0632975
-4.131418	undervisning	-0.20183489
-4.131418	sont	-0.0632975
-4.131418	foljde	-0.0632975
-4.31631	knarrande	-0.0632975
-4.131418	ljud	-0.0632975
-4.31631	duns	-0.0632975
-3.3466105	alltso	-0.06329748
-4.31631	frongo	-0.0632975
-4.31631	inkassolagens	-0.0632975
-3.8193018	regler	-0.12706538
-3.491849	ando	-0.101419576
-3.9627936	tillstond	-0.15058674
-4.31631	indraget	-0.0632975
-4.31631	studera	-0.0632975
-3.178187	darfor	-0.103016265
-4.31631	garantitabellerna	-0.0632975
-3.8193018	noga	-0.12706538
-2.997965	du	-0.16488637
-4.31631	medveten	-0.0632975
-4.31631	josef	-0.0632975
-4.31631	roos	-0.0632975
-4.31631	teodor	-0.0632975
-3.9627936	sten	-0.12706538
-3.9627936	fjarde	-0.0632975
-4.131418	meningen	-0.0632975
-4.131418	landerna	-0.20183489
-4.31631	grona	-0.0632975
-4.131418	plocka	-0.20183489
-3.9627936	telefon	-0.0632975
-4.31631	q	-0.0632975
-4.31631	forsens	-0.0632975
-4.31631	don	-0.0632975
-3.711629	leder	-0.113540724
-3.9627936	vattnet	-0.12706538
-4.31631	borje	-0.0632975
-3.0571332	vill	-0.14730057
-4.131418	rora	-0.0632975
-2.9625711	vid	-0.099088624
-4.131418	fotterna	-0.0632975
-3.3898418	fast	-0.0632975
-3.237961	vet	-0.22485808
-4.31631	hamnar	-0.0632975
-3.8193018	grupp	-0.0632975
-3.125653	manniskor	-0.19169794
-4.31631	efterkalken	-0.0632975
-3.0787938	hela	-0.14738896
-3.8193018	livet	-0.0632975
-3.711629	skolan	-0.09049012
-3.9627936	lyckats	-0.0632975
-4.131418	lara	-0.0632975
-4.131418	sproket	-0.0632975
-3.9627936	trettiotre	-0.0632975
-4.31631	sjuhundrasjuttiosex	-0.0632975
-3.8193018	sprang	-0.0632975
-4.31631	rektorsexpeditionen	-0.0632975
-3.9627936	hallen	-0.12706538
-4.131418	fria	-0.0632975
-3.9627936	ottiotvo	-0.0632975
-3.8193018	trettiofyra	-0.0632975
-4.31631	flyttar	-0.0632975
-4.31631	kopplas	-0.0632975
-4.131418	hyresnamnden	-0.0632975
-4.131418	brydde	-0.20183489
-4.31631	dikter	-0.0632975
-3.711629	ronarna	-0.113540724
-3.178187	stod	-0.14715968
-3.4378574	klart	-0.18238527
-4.31631	mondagskvallen	-0.0632975
-4.31631	utanforskap	-0.0632975
-4.31631	tur	-0.0632975
-4.31631	legitimerar	-0.0632975
-3.9627936	ratten	-0.15058674
-4.31631	kritisera	-0.0632975
-4.131418	talade	-0.0632975
-4.31631	knivar	-0.0632975
-4.31631	holigheter	-0.0632975
-3.2712462	hennes	-0.0632975
-4.31631	hjarnas	-0.0632975
-4.31631	byggstallningar	-0.0632975
-4.31631	hetsa	-0.0632975
-2.7310026	mot	-0.07905128
-4.31631	folkgrupp	-0.0632975
-4.31631	sunt	-0.0632975
-4.31631	forsvara	-0.0632975
-4.31631	manskliga	-0.0632975
-4.31631	rattigheter	-0.0632975
-4.31631	skumt	-0.0632975
-3.9627936	sextiotvo	-0.0632975
-4.31631	sjuhundrasju	-0.0632975
-4.131418	kvinnors	-0.0632975
-3.711629	situation	-0.113540724
-4.31631	dodsorsaken	-0.0632975
-4.31631	benamns	-0.0632975
-4.31631	syraforgiftning	-0.0632975
-4.31631	foljd	-0.0632975
-4.31631	kvantiteterna	-0.0632975
-4.31631	foder	-0.0632975
-4.31631	grundkravet	-0.0632975
-3.4378574	jobb	-0.27639908
-3.4378574	del	-0.22544104
-4.131418	befolkningen	-0.0632975
-2.857426	kommer	-0.1907031
-4.31631	sysselsatt	-0.0632975
-4.31631	vordsektorn	-0.0632975
-3.9627936	social	-0.0632975
-4.131418	service	-0.20183489
-4.31631	kommunikation	-0.0632975
-3.4378574	borde	-0.31728673
-4.131418	frukt	-0.20183489
-4.31631	gront	-0.0632975
-2.997965	aven	-0.24130177
-3.8193018	inneholler	-0.0632975
-3.9627936	fibrer	-0.15058674
-4.131418	amnen	-0.0632975
-4.131418	skyddar	-0.0632975
-4.131418	cancer	-0.20183489
-4.131418	tyska	-0.0632975
-3.8193018	engelska	-0.20183489
-4.131418	laser	-0.0632975
-4.31631	spanska	-0.0632975
-4.31631	kvallarna	-0.0632975
-4.131418	vinnande	-0.0632975
-3.5535185	svensk	-0.0632975
-4.131418	final	-0.0632975
-4.131418	norrman	-0.20183489
-3.9627936	spelar	-0.0632975
-3.711629	roll	-0.17036636
-4.31631	bjuds	-0.0632975
-4.31631	marta	-0.0632975
-4.31631	utbildade	-0.0632975
-4.31631	barnskoterska	-0.0632975
-4.131418	flyttade	-0.0632975
-4.31631	hemifron	-0.0632975
-4.131418	tidigt	-0.0632975
-4.31631	journalisterna	-0.0632975
-4.31631	etiska	-0.0632975
-3.237961	ger	-0.08901569
-3.1511261	ratt	-0.18471621
-4.31631	vagra	-0.0632975
-4.31631	utfora	-0.0632975
-3.8193018	uppdrag	-0.12706538
-4.31631	christer	-0.0632975
-4.131418	lof	-0.20183489
-4.31631	ersmark	-0.0632975
-4.31631	artikel	-0.0632975
-4.31631	forbattra	-0.0632975
-4.131418	planerna	-0.0632975
-4.131418	nedot	-0.20183489
-4.31631	november	-0.0632975
-4.131418	las	-0.0632975
-4.131418	mo	-0.0632975
-3.711629	tro	-0.0632975
-4.31631	napen	-0.0632975
-4.31631	fogelunge	-0.0632975
-3.3898418	log	-0.08353068
-4.31631	gapade	-0.0632975
-4.31631	pep	-0.0632975
-3.8193018	mat	-0.12706538
-4.31631	fogelbo	-0.0632975
-3.711629	landet	-0.18238527
-3.9627936	nio	-0.0632975
-4.131418	etthundraottiootta	-0.20183489
-4.31631	fyrahundrasextiofem	-0.0632975
-3.9627936	femhundraottiotre	-0.34700584
-4.31631	ensamstoende	-0.0632975
-3.625418	mor	-0.0632975
-4.31631	ordnad	-0.0632975
-4.31631	barntillsyn	-0.0632975
-4.31631	forfinade	-0.0632975
-4.131418	tekniken	-0.0632975
-4.31631	inspelningsperioderna	-0.0632975
-3.5535185	langre	-0.19673592
-4.131418	listan	-0.0632975
-4.31631	godkanda	-0.0632975
-4.31631	naturmedel	-0.0632975
-4.31631	monsuntid	-0.0632975
-4.31631	oversvamningarna	-0.0632975
-3.8193018	fortsatter	-0.0632975
-3.8193018	sagt	-0.0632975
-4.31631	molning	-0.0632975
-4.31631	anhoriga	-0.0632975
-4.31631	overlevande	-0.0632975
-4.31631	sondagsmorgonen	-0.0632975
-3.178187	fott	-0.07596622
-4.131418	trehundraottiosex	-0.20183489
-3.9627936	domen	-0.0632975
-3.8193018	handlade	-0.0632975
-3.8193018	fullt	-0.0632975
-4.31631	korrekt	-0.0632975
-4.31631	trehundratjugoett	-0.0632975
-4.31631	sexhundrafyrtiootta	-0.0632975
-4.31631	halvtimme	-0.0632975
-4.31631	lille	-0.0632975
-3.9627936	bak	-0.0632975
-4.31631	tandemcykeln	-0.0632975
-3.625418	f	-0.41395265
-4.31631	ulf	-0.0632975
-4.31631	lindberg	-0.0632975
-4.31631	mats	-0.0632975
-4.31631	hagman	-0.0632975
-4.31631	helge	-0.0632975
-4.131418	blomkvist	-0.20183489
-4.31631	lerdala	-0.0632975
-4.31631	poarp	-0.0632975
-4.31631	pojkarna	-0.0632975
-4.31631	korning	-0.0632975
-4.31631	noteringar	-0.0632975
-3.9627936	ort	-0.0632975
-3.491849	vor	-0.0632975
-4.131418	huslakare	-0.0632975
-3.178187	bli	-0.09097548
-3.9627936	gammal	-0.0632975
-4.31631	skroplig	-0.0632975
-4.31631	sodant	-0.0632975
-4.131418	trevligt	-0.0632975
-3.3898418	frogan	-0.20079775
-2.997965	nogra	-0.091112114
-4.31631	drabbade	-0.0632975
-4.31631	orskullarna	-0.0632975
-4.31631	stamma	-0.0632975
-3.8193018	staten	-0.10475273
-3.711629	oren	-0.35385182
-4.31631	kansligt	-0.0632975
-4.31631	partiledningen	-0.0632975
-4.131418	kritik	-0.0632975
-3.8193018	endast	-0.0632975
-4.31631	hoginkomsttagarnas	-0.0632975
-4.131418	skatter	-0.0632975
-4.31631	sanks	-0.0632975
-2.9799078	or	-0.3180405
-4.31631	ekonomistiska	-0.0632975
-4.31631	ingenjorskonsten	-0.0632975
-3.8193018	politik	-0.0632975
-4.31631	motstridiga	-0.0632975
-3.9627936	intressen	-0.0632975
-4.31631	varderingskonflikter	-0.0632975
-4.31631	klasskamp	-0.0632975
-3.491849	ottioett	-0.0632975
-3.9627936	trehundrafyrtiotre	-0.34700584
-3.711629	ottionio	-0.0632975
-4.31631	sjuhundranio	-0.0632975
-4.131418	skyldiga	-0.0632975
-4.31631	befattat	-0.0632975
-4.31631	diverse	-0.0632975
-4.131418	hjalpmedel	-0.0632975
-3.625418	havdar	-0.10475273
-3.9627936	oklagaren	-0.15058674
-4.31631	narheten	-0.0632975
-3.9627936	sodan	-0.06329753
-4.31631	katastrof	-0.0632975
-4.31631	niohundrasjuttioett	-0.0632975
-4.131418	be	-0.0632975
-4.31631	vederborande	-0.0632975
-3.625418	lamna	-0.0632975
-3.1511261	dig	-0.116353266
-4.31631	fred	-0.0632975
-3.9627936	hittar	-0.0632975
-3.625418	egen	-0.0632975
-4.131418	vilja	-0.0632975
-3.9627936	sluta	-0.0632975
-4.31631	tobak	-0.0632975
-4.131418	w	-0.0632975
-3.9627936	lagen	-0.0632975
-4.31631	distriktsnamnden	-0.0632975
-4.131418	besluta	-0.0632975
-3.2070463	tio	-0.07838333
-4.131418	trehundraottiotvo	-0.20183489
-4.31631	akuta	-0.0632975
-4.31631	handskadorna	-0.0632975
-4.31631	okar	-0.0632975
-3.3072956	framfor	-0.29646376
-3.491849	sodana	-0.09401209
-4.31631	mikrokirurgiska	-0.0632975
-3.9627936	insatser	-0.0632975
-4.31631	operationstiderna	-0.0632975
-3.2712462	ofta	-0.12970915
-3.9627936	longa	-0.0632975
-4.31631	fyrahundrasextionio	-0.0632975
-4.131418	oljan	-0.0632975
-4.31631	upptacktes	-0.0632975
-4.31631	parlfiske	-0.0632975
-4.131418	viktigaste	-0.0632975
-4.31631	inkomstkallorna	-0.0632975
-4.31631	regionen	-0.0632975
-4.31631	otroligt	-0.0632975
-4.31631	hoppat	-0.0632975
-4.131418	aktiemarknaden	-0.15058674
-4.31631	drommen	-0.0632975
-4.31631	forvandlats	-0.0632975
-4.31631	mardrom	-0.0632975
-3.491849	v	-0.39616913
-3.4378574	b	-0.32999524
-4.31631	inga-britt	-0.0632975
-4.31631	melin	-0.0632975
-4.31631	hildegard	-0.0632975
-4.31631	sjostrand	-0.0632975
-4.31631	jukkasjarvi	-0.0632975
-4.31631	olafstrom	-0.0632975
-4.31631	yxlan	-0.0632975
-4.31631	peka	-0.0632975
-4.31631	bargningsbil	-0.0632975
-4.131418	backa	-0.0632975
-3.4378574	vora	-0.0632975
-4.31631	rara	-0.0632975
-4.31631	barnbarn	-0.0632975
-4.131418	leker	-0.0632975
-4.31631	busar	-0.0632975
-3.8193018	ute	-0.0632975
-4.31631	granntradgorden	-0.0632975
-4.31631	karleksaposteln	-0.0632975
-4.31631	rekommenderar	-0.0632975
-4.31631	dans	-0.0632975
-4.31631	boner	-0.0632975
-4.131418	presenter	-0.15058674
-4.31631	vardagens	-0.0632975
-4.131418	kosmos	-0.0632975
-4.31631	paradis	-0.0632975
-3.8193018	betyder	-0.0632975
-4.31631	kriminella	-0.0632975
-4.31631	sonat	-0.0632975
-3.491849	brott	-0.17152499
-3.2712462	behover	-0.22228496
-3.9627936	avsloja	-0.0632975
-4.131418	bakgrund	-0.0632975
-4.131418	blivande	-0.0632975
-3.9627936	arbetsgivare	-0.0632975
-4.31631	utbytestakten	-0.0632975
-4.31631	mobiltelefoner	-0.0632975
-3.9627936	oka	-0.0632975
-4.31631	genomsnittliga	-0.0632975
-4.31631	anvandaren	-0.0632975
-4.31631	forvantas	-0.0632975
-4.131418	byta	-0.0632975
-3.711629	vart	-0.0632975
-3.9627936	tredje	-0.0632975
-3.711629	bild	-0.113540724
-4.31631	tvohundranitton	-0.0632975
-3.8193018	sjuttiotre	-0.0632975
-4.31631	trehundratrettio	-0.0632975
-3.237961	hem	-0.17988004
-3.9627936	ata	-0.0632975
-3.625418	femtioett	-0.0632975
-4.131418	ottahundranittioett	-0.20183489
-4.31631	modet	-0.0632975
-4.131418	formodligen	-0.0632975
-3.9627936	fallit	-0.0632975
-4.31631	besvikelser	-0.0632975
-4.31631	regerande	-0.0632975
-4.31631	ofronkomligen	-0.0632975
-4.131418	medfor	-0.0632975
-3.8193018	faktiskt	-0.0632975
-3.8193018	fyrtiotvo	-0.0632975
-4.31631	niohundraottiofyra	-0.0632975
-3.711629	vanta	-0.113540724
-4.31631	mirakel	-0.0632975
-4.131418	tavling	-0.20183489
-4.31631	takten	-0.0632975
-3.8193018	extra	-0.0632975
-4.31631	stavelser	-0.0632975
-4.31631	volla	-0.0632975
-3.8193018	sextio	-0.0632975
-4.31631	sjuhundranittiootta	-0.0632975
-4.131418	sexhundratjugotvo	-0.20183489
-4.31631	separationen	-0.0632975
-3.4378574	egentligen	-0.1497343
-4.31631	absurd	-0.0632975
-4.131418	pekar	-0.0632975
-4.31631	utvalda	-0.0632975
-4.31631	yrkesgrupper	-0.0632975
-3.2712462	se	-0.14101751
-3.9627936	toppen	-0.34700584
-4.131418	boken	-0.0632975
-3.9627936	kopa	-0.0632975
-4.131418	utom	-0.0632975
-4.31631	lars-goran	-0.0632975
-3.9627936	lindquist	-0.34700584
-4.31631	nygord	-0.0632975
-4.31631	oryd	-0.0632975
-3.8193018	dragit	-0.0632975
-3.711629	bocker	-0.21069114
-3.9627936	slags	-0.0632975
-4.31631	uppdatera	-0.0632975
-4.31631	los	-0.0632975
-4.31631	lovat	-0.0632975
-3.125653	henne	-0.26479077
-4.31631	sy	-0.0632975
-4.31631	kjol	-0.0632975
-4.31631	skjorta	-0.0632975
-4.31631	tyget	-0.0632975
-4.131418	kopte	-0.0632975
-3.178187	senare	-0.076681025
-4.31631	doktorera	-0.0632975
-4.31631	medicin	-0.0632975
-4.31631	knallroda	-0.0632975
-4.31631	kinder	-0.0632975
-4.31631	stamningar	-0.0632975
-4.31631	strange	-0.0632975
-4.31631	lektorn	-0.0632975
-4.31631	forhorde	-0.0632975
-4.31631	franska	-0.0632975
-4.31631	verb	-0.0632975
-4.31631	knappar	-0.0632975
-3.625418	dina	-0.0632975
-4.31631	kontonummer	-0.0632975
-3.491849	samt	-0.14941508
-4.31631	rakningarna	-0.0632975
-3.8193018	banken	-0.0632975
-3.711629	direkt	-0.113540724
-3.8193018	ditt	-0.0632975
-4.131418	konto	-0.20183489
-3.9627936	femtiosex	-0.0632975
-4.131418	fyrahundrafyra	-0.20183489
-3.9627936	ottahundraottiofyra	-0.34700584
-4.31631	sextiofem	-0.0632975
-4.131418	fyrahundraottioett	-0.20183489
-4.31631	darav	-0.0632975
-3.9627936	verk	-0.12706538
-3.9627936	kontakt	-0.15058674
-4.31631	primarvordsnamnden	-0.0632975
-3.491849	sog	-0.07748128
-4.31631	verklige	-0.0632975
-4.31631	motsattning	-0.0632975
-3.0571332	mellan	-0.07474368
-3.8193018	forandring	-0.12706538
-4.31631	stabilitet	-0.0632975
-3.9627936	ottiosex	-0.0632975
-4.31631	sjuhundratolv	-0.0632975
-3.9627936	darefter	-0.0632975
-4.31631	folkomrostning	-0.0632975
-4.31631	foretas	-0.0632975
-4.31631	kolonins	-0.0632975
-4.131418	hindrade	-0.0632975
-3.0787938	hans	-0.078878805
-4.31631	breda	-0.0632975
-4.31631	valseger	-0.0632975
-3.9627936	nittiofyra	-0.0632975
-4.31631	fyrahundrafyrtioett	-0.0632975
-3.711629	ganska	-0.0632975
-4.31631	helgerna	-0.0632975
-4.31631	termin	-0.0632975
-3.625418	larare	-0.0632975
-4.131418	elev	-0.0632975
-3.8193018	foraldrar	-0.12706538
-4.131418	fora	-0.0632975
-3.5535185	samtal	-0.1369904
-4.31631	syftar	-0.0632975
-3.8193018	framot	-0.0632975
-3.2712462	d	-0.34713072
-4.31631	parlsocker	-0.0632975
-4.31631	semlor	-0.0632975
-4.31631	styggelse	-0.0632975
-3.9627936	makt	-0.0632975
-4.31631	skapas	-0.0632975
-4.131418	mots	-0.0632975
-4.31631	agerar	-0.0632975
-4.131418	offentliga	-0.0632975
-4.31631	skolpolitikens	-0.0632975
-4.31631	inriktning	-0.0632975
-3.8193018	mol	-0.0632975
-3.8193018	skiljer	-0.0632975
-3.3072956	ot	-0.07940792
-4.31631	trafikbuller	-0.0632975
-4.31631	miljostorning	-0.0632975
-4.31631	drabbar	-0.0632975
-4.131418	flest	-0.0632975
-4.131418	stockholmare	-0.0632975
-4.31631	mattias	-0.0632975
-4.31631	nylen	-0.0632975
-4.31631	svarar	-0.0632975
-4.31631	belopp	-0.0632975
-4.131418	musiken	-0.0632975
-4.31631	laska	-0.0632975
-4.31631	dimljus	-0.0632975
-4.31631	balans	-0.0632975
-4.31631	testar	-0.0632975
-3.8193018	sjutton	-0.0632975
-4.31631	niohundranittio	-0.0632975
-3.711629	slog	-0.0632975
-4.31631	gordshornet	-0.0632975
-3.237961	igen	-0.8010099
-4.31631	teatertaltet	-0.0632975
-4.31631	rockcirkusen	-0.0632975
-3.491849	haft	-0.113540724
-4.31631	fullsatt	-0.0632975
-3.8193018	stort	-0.0632975
-3.5535185	kvall	-0.16323985
-3.8193018	niohundratre	-0.4719446
-4.31631	varnar	-0.0632975
-3.9627936	placera	-0.0632975
-4.31631	varningstrianglar	-0.0632975
-3.711629	bilen	-0.21069114
-4.31631	trevande	-0.0632975
-3.9627936	diskussionen	-0.0632975
-4.31631	kloka	-0.0632975
-4.31631	nodvandiga	-0.0632975
-4.31631	utdragna	-0.0632975
-4.31631	kronforsvaret	-0.0632975
-4.131418	startat	-0.20183489
-3.711629	ottiosju	-0.0632975
-4.131418	femhundratjugotvo	-0.20183489
-4.31631	sjoisen	-0.0632975
-4.31631	heter	-0.0632975
-4.31631	bohuskusten	-0.0632975
-4.31631	kastat	-0.0632975
-4.31631	innerfjordarna	-0.0632975
-4.31631	gallde	-0.0632975
-4.31631	beroringen	-0.0632975
-4.131418	forsiktig	-0.0632975
-4.31631	klapp	-0.0632975
-3.625418	samtidigt	-0.18471621
-4.31631	medicinen	-0.0632975
-4.31631	delades	-0.0632975
-4.31631	frigjorda	-0.0632975
-4.31631	energin	-0.0632975
-4.31631	upphov	-0.0632975
-4.31631	elastiska	-0.0632975
-4.31631	vogor	-0.0632975
-4.131418	jorden	-0.0632975
-4.31631	hoa	-0.0632975
-4.31631	tjoa	-0.0632975
-4.131418	hoppas	-0.0632975
-3.9627936	reagerar	-0.0632975
-4.31631	iden	-0.0632975
-4.31631	kvinnoparti	-0.0632975
-4.31631	osvensk	-0.0632975
-2.761997	under	-0.14101751
-4.31631	extrema	-0.0632975
-4.131418	omstandigheter	-0.0632975
-4.31631	bryts	-0.0632975
-4.31631	traet	-0.0632975
-4.31631	metan	-0.0632975
-4.31631	koloxid	-0.0632975
-4.31631	vate	-0.0632975
-4.31631	sexhundrafyrtiosju	-0.0632975
-2.8849623	vad	-0.37768757
-3.9627936	radslan	-0.0632975
-4.31631	betraffar	-0.0632975
-3.491849	ni	-0.0632975
-3.5535185	sto	-0.09401209
-3.711629	precis	-0.21069114
-4.31631	kladd	-0.0632975
-4.31631	sjuan	-0.0632975
-4.31631	tekniktraning	-0.0632975
-4.31631	fotbollseleverna	-0.0632975
-4.31631	sune	-0.0632975
-4.31631	lidstrom	-0.0632975
-4.31631	enar	-0.0632975
-3.9627936	olsson	-0.34700584
-4.31631	oslund	-0.0632975
-4.31631	mangskog	-0.0632975
-4.31631	oje	-0.0632975
-4.31631	nasviken	-0.0632975
-3.8193018	handla	-0.0632975
-4.31631	pogoende	-0.0632975
-4.31631	maktmissbruk	-0.0632975
-4.131418	speglar	-0.0632975
-4.131418	varderingar	-0.0632975
-3.711629	kvinnan	-0.0632975
-4.31631	accepteras	-0.0632975
-4.31631	mannens	-0.0632975
-4.31631	jamlike	-0.0632975
-4.31631	egensinniga	-0.0632975
-3.9627936	forebilder	-0.15058674
-4.31631	bidra	-0.0632975
-4.31631	grann	-0.0632975
-3.9627936	kanns	-0.15058674
-3.8193018	ottiotre	-0.0632975
-4.31631	sjuhundratrettiotvo	-0.0632975
-3.2070463	fler	-0.0632975
-4.131418	farre	-0.0632975
-4.31631	underskoterskor	-0.0632975
-4.31631	bitraden	-0.0632975
-4.31631	vordcentralerna	-0.0632975
-3.2070463	kanske	-0.12098359
-4.31631	distriktsskoterskor	-0.0632975
-3.711629	brukade	-0.0632975
-3.8193018	leende	-0.0632975
-4.131418	tomten	-0.0632975
-4.131418	snall	-0.0632975
-4.31631	rar	-0.0632975
-3.9627936	fin	-0.15058674
-3.8193018	frihet	-0.12706538
-4.131418	dricker	-0.0632975
-4.31631	svettig	-0.0632975
-3.9627936	anda	-0.0632975
-4.31631	hjassan	-0.0632975
-4.31631	etthundrasjuttionio	-0.0632975
-4.31631	reformen	-0.0632975
-4.31631	bidrar	-0.0632975
-4.131418	jamstalldhet	-0.0632975
-3.9627936	satter	-0.0632975
-3.5535185	barnen	-0.0632975
-4.31631	centrum	-0.0632975
-4.31631	underlattar	-0.0632975
-4.131418	utstrackning	-0.0632975
-4.31631	forvarvsarbete	-0.0632975
-4.31631	krabaten	-0.0632975
-4.31631	ful	-0.0632975
-4.31631	hejare	-0.0632975
-4.31631	massera	-0.0632975
-4.31631	horbotten	-0.0632975
-3.491849	y	-0.19606435
-4.31631	sjukdomar	-0.0632975
-4.31631	diagnoser	-0.0632975
-4.31631	kirurgin	-0.0632975
-4.31631	forekommer	-0.0632975
-3.9627936	sallan	-0.15058674
-3.9627936	sextiofyra	-0.0632975
-4.31631	niohundrasextiosex	-0.0632975
-4.31631	frusit	-0.0632975
-4.31631	is	-0.0632975
-4.31631	klumpar	-0.0632975
-4.31631	motorn	-0.0632975
-4.131418	forhollanden	-0.0632975
-4.31631	maken	-0.0632975
-4.31631	rokare	-0.0632975
-3.711629	okad	-0.0632975
-4.31631	sjuklighet	-0.0632975
-3.9627936	icke	-0.0632975
-4.31631	livshotande	-0.0632975
-4.31631	vasa	-0.0632975
-4.131418	positiv	-0.0632975
-4.31631	tryck	-0.0632975
-4.31631	sub-woofer	-0.0632975
-4.31631	asterisk	-0.0632975
-4.31631	riksdagshuset	-0.0632975
-3.178187	ser	-0.114048585
-4.31631	gammalt	-0.0632975
-4.31631	slitet	-0.0632975
-3.9627936	bredvid	-0.0632975
-4.31631	nyrenoverade	-0.0632975
-3.711629	kyrkan	-0.10475273
-4.31631	tvohundrafemtioett	-0.0632975
-4.31631	biobranslena	-0.0632975
-4.31631	avfall	-0.0632975
-4.31631	spillo	-0.0632975
-3.8193018	exempelvis	-0.0632975
-3.8193018	trad	-0.20183489
-3.9627936	grenar	-0.0632975
-4.31631	skogsavverkningen	-0.0632975
-3.3898418	svort	-0.40443695
-4.131418	lagga	-0.0632975
-4.31631	konkurrenskraftiga	-0.0632975
-4.31631	bud	-0.0632975
-4.131418	spannande	-0.0632975
-4.31631	underhollningsprogram	-0.0632975
-3.625418	holla	-0.0632975
-3.3466105	kvar	-0.17688085
-4.31631	attraktiva	-0.0632975
-4.31631	format	-0.0632975
-4.31631	fornya	-0.0632975
-3.8193018	sitta	-0.098582774
-4.31631	verandan	-0.0632975
-4.131418	sjunga	-0.0632975
-4.31631	blues	-0.0632975
-3.711629	lasa	-0.0632975
-4.31631	laxor	-0.0632975
-4.31631	eftermiddagarna	-0.0632975
-3.9627936	sjuttiofyra	-0.0632975
-4.131418	femhundratjugotre	-0.20183489
-4.131418	skrika	-0.0632975
-3.491849	namligen	-0.14941508
-4.131418	vann	-0.0632975
-4.31631	matchen	-0.0632975
-3.9627936	rorde	-0.34700584
-4.31631	startpistol	-0.0632975
-4.31631	undersokta	-0.0632975
-4.31631	tillverkarna	-0.0632975
-4.31631	butikerna	-0.0632975
-4.131418	lotit	-0.0632975
-3.625418	folja	-0.24933207
-4.31631	rekommendationerna	-0.0632975
-4.31631	etthundraottiotvo	-0.0632975
-3.4378574	tog	-0.08353068
-4.31631	knappa	-0.0632975
-3.9627936	resurser	-0.0632975
-3.9627936	djupa	-0.0632975
-4.31631	fororna	-0.0632975
-4.31631	kinderna	-0.0632975
-4.31631	pannan	-0.0632975
-3.9627936	forde	-0.0632975
-4.31631	tanken	-0.0632975
-4.31631	hoppressade	-0.0632975
-4.31631	kontinenter	-0.0632975
-4.31631	havsbottnar	-0.0632975
-3.3466105	bor	-0.0854177
-4.131418	fundera	-0.0632975
-4.31631	binda	-0.0632975
-3.8193018	lon	-0.12706538
-4.131418	niohundratrettionio	-0.20183489
-4.131418	dyrt	-0.0632975
-4.31631	forhandla	-0.0632975
-3.5535185	smo	-0.0632975
-4.131418	lokala	-0.0632975
-4.31631	trafikforetag	-0.0632975
-4.31631	tvohundrasexton	-0.0632975
-4.31631	simma	-0.0632975
-4.131418	skeppet	-0.0632975
-3.9627936	fint	-0.0632975
-3.711629	tillsammans	-0.35385182
-4.31631	tas	-0.0632975
-4.31631	blodigaste	-0.0632975
-3.8193018	allvar	-0.0632975
-4.31631	utsags	-0.0632975
-4.31631	maxvolym	-0.0632975
-4.31631	foraktligt	-0.0632975
-4.131418	kvinnligt	-0.0632975
-4.131418	individuellt	-0.0632975
-4.31631	manligt	-0.0632975
-4.31631	kollektivt	-0.0632975
-4.31631	johannes	-0.0632975
-4.31631	sandgren	-0.0632975
-4.31631	bjuroker	-0.0632975
-4.31631	vindelgransele	-0.0632975
-4.131418	valde	-0.0632975
-4.31631	tappade	-0.0632975
-4.131418	rapport	-0.0632975
-4.131418	klev	-0.0632975
-3.1015918	ur	-0.0632975
-4.31631	duschen	-0.0632975
-4.31631	valdig	-0.0632975
-3.9627936	fart	-0.0632975
-4.31631	solens	-0.0632975
-4.131418	sken	-0.0632975
-4.31631	dok	-0.0632975
-4.31631	simbassangen	-0.0632975
-4.131418	fyrahundrafyrtiofem	-0.20183489
-3.625418	tjugofyra	-0.0632975
-4.31631	trehundratjugotvo	-0.0632975
-4.131418	fyrahundrafemtio	-0.20183489
-4.31631	niohundranittiootta	-0.0632975
-3.9627936	ottiofyra	-0.0632975
-4.131418	sexhundrafyrtiotre	-0.20183489
-4.31631	reglerna	-0.0632975
-4.31631	omfatta	-0.0632975
-4.31631	flygningar	-0.0632975
-4.31631	stalls	-0.0632975
-3.625418	skal	-0.0632975
-4.31631	bokade	-0.0632975
-3.9627936	platser	-0.15058674
-4.31631	springer	-0.0632975
-4.131418	massa	-0.0632975
-4.31631	konster	-0.0632975
-4.131418	upprepa	-0.0632975
-3.625418	miljon	-0.0632975
-4.31631	skattefritt	-0.0632975
-4.131418	organisationerna	-0.0632975
-4.31631	beskuren	-0.0632975
-3.8193018	risken	-0.12706538
-4.131418	overhangande	-0.0632975
-4.31631	ledningarna	-0.0632975
-4.31631	centralorganisationerna	-0.0632975
-4.31631	marginaliserade	-0.0632975
-3.5535185	land	-0.12706538
-4.31631	dubbelmoral	-0.0632975
-4.31631	hyckleri	-0.0632975
-4.31631	nonsens	-0.0632975
-4.31631	tillots	-0.0632975
-4.131418	dominera	-0.0632975
-4.131418	massmedia	-0.0632975
-4.31631	oratal	-0.0632975
-4.31631	forefaller	-0.0632975
-3.711629	sarskilt	-0.0632975
-4.31631	tillforlitligt	-0.0632975
-4.31631	varldspolis	-0.0632975
-4.131418	utsedd	-0.20183489
-4.31631	ankaren	-0.0632975
-4.31631	valrorelsen	-0.0632975
-4.31631	oterupprattad	-0.0632975
-4.131418	dottrar	-0.0632975
-4.31631	fullmakt	-0.0632975
-3.9627936	kvinnans	-0.0632975
-4.31631	konton	-0.0632975
-4.31631	tips	-0.0632975
-4.31631	brottsforebyggande	-0.0632975
-3.5535185	arbete	-0.0632975
-3.9627936	kommunerna	-0.0632975
-3.4378574	mera	-0.0632975
-4.131418	kriminalvorden	-0.0632975
-4.31631	bostad	-0.0632975
-4.31631	frigivningen	-0.0632975
-4.131418	minska	-0.0632975
-4.131418	oterfallen	-0.0632975
-4.131418	forslagen	-0.0632975
-4.31631	spelreglerna	-0.0632975
-4.131418	arbetsmarknaden	-0.0632975
-4.31631	starker	-0.0632975
-4.31631	ensidigt	-0.0632975
-3.9627936	arbetsgivarna	-0.0632975
-4.131418	lontagarnas	-0.0632975
-4.31631	bekostnad	-0.0632975
-3.8193018	minuter	-0.10475273
-4.31631	gaser	-0.0632975
-4.31631	bildats	-0.0632975
-4.31631	kuddarna	-0.0632975
-3.3072956	mindre	-0.0632975
-4.31631	explosion	-0.0632975
-4.31631	kriminalpolitiska	-0.0632975
-4.31631	debatten	-0.0632975
-4.31631	hojs	-0.0632975
-4.31631	batongerna	-0.0632975
-4.31631	skoldebatten	-0.0632975
-4.131418	viner	-0.0632975
-4.31631	rottingen	-0.0632975
-3.9627936	otminstone	-0.0632975
-4.31631	bildligt	-0.0632975
-4.131418	talat	-0.0632975
-4.31631	utlovas	-0.0632975
-4.31631	anstallas	-0.0632975
-4.31631	medel	-0.0632975
-4.31631	skakas	-0.0632975
-4.31631	ombyggnader	-0.0632975
-4.131418	reparationer	-0.20183489
-4.31631	parternas	-0.0632975
-4.31631	allians	-0.0632975
-4.131418	tillvaxt	-0.15058674
-3.9627936	forsok	-0.12706538
-4.31631	losa	-0.0632975
-4.31631	konflikterna	-0.0632975
-4.31631	avtalsvagen	-0.0632975
-3.711629	menar	-0.113540724
-3.8193018	forslaget	-0.113540724
-4.31631	dagistaxan	-0.0632975
-4.31631	foregotts	-0.0632975
-4.31631	bred	-0.0632975
-3.9627936	diskussion	-0.0632975
-4.131418	presenterades	-0.20183489
-4.31631	hemforsakringen	-0.0632975
-4.31631	rattsskydd	-0.0632975
-3.9627936	betalar	-0.0632975
-4.31631	rattegongskostnader	-0.0632975
-4.31631	tvistemol	-0.0632975
-3.711629	galler	-0.08353068
-3.625418	misstankt	-0.43303308
-3.9627936	ottiofem	-0.0632975
-4.31631	fyrahundrasju	-0.0632975
-3.711629	sjuttiotvo	-0.0632975
-4.131418	etthundratrettio	-0.20183489
-3.8193018	fyrtiofyra	-0.0632975
-3.9627936	niohundratolv	-0.34700584
-3.5535185	fyrtiosex	-0.0632975
-4.131418	fyrahundrafemtiotre	-0.20183489
-4.31631	peta	-0.0632975
-4.31631	aktuella	-0.0632975
-4.131418	hanger	-0.0632975
-4.31631	lirare	-0.0632975
-4.31631	kombinerar	-0.0632975
-4.131418	tufft	-0.0632975
-3.8193018	spel	-0.0632975
-4.31631	teknik	-0.0632975
-4.131418	effektivt	-0.0632975
-4.31631	slappte	-0.0632975
-4.31631	tvattklammorna	-0.0632975
-3.625418	veta	-0.0632975
-3.9627936	hant	-0.12706538
-4.31631	markligaste	-0.0632975
-4.31631	motsattningarna	-0.0632975
-4.31631	informationsteknik	-0.0632975
-3.711629	behov	-0.21069114
-4.31631	livsfarlig	-0.0632975
-4.31631	farkost	-0.0632975
-4.31631	iskalla	-0.0632975
-3.8193018	foretaget	-0.0632975
-4.131418	sysslar	-0.20183489
-3.9627936	marknadsforing	-0.0632975
-4.131418	kurser	-0.0632975
-4.31631	vinkunskap	-0.0632975
-4.31631	annorlunda	-0.0632975
-3.2070463	just	-0.19793026
-3.9627936	dra	-0.0632975
-3.3898418	tiden	-0.1420506
-4.131418	trettiosex	-0.0632975
-4.31631	fyrahundranittionio	-0.0632975
-3.9627936	borjan	-0.0632975
-4.31631	hemmafruar	-0.0632975
-3.711629	plotsligt	-0.0632975
-4.31631	restaurangen	-0.0632975
-3.9627936	namnet	-0.15058674
-3.711629	tala	-0.10475273
-4.31631	teckensprok	-0.0632975
-3.9627936	bordet	-0.34700584
-3.625418	medan	-0.0632975
-4.131418	drack	-0.0632975
-4.31631	torra	-0.0632975
-4.131418	varma	-0.0632975
-4.31631	forstod	-0.0632975
-3.3466105	deras	-0.06329753
-4.31631	ansikten	-0.0632975
-4.31631	kantigheten	-0.0632975
-4.31631	molningarnas	-0.0632975
-4.31631	motsatta	-0.0632975
-3.9627936	uttryck	-0.15058674
-4.31631	smaken	-0.0632975
-4.31631	utvecklad	-0.0632975
-4.31631	fruktsotma	-0.0632975
-4.31631	langd	-0.0632975
-4.131418	raknar	-0.0632975
-3.9627936	loter	-0.0632975
-4.31631	inbjudit	-0.0632975
-3.2070463	gick	-0.113540724
-4.31631	hissen	-0.0632975
-3.3898418	borjade	-0.1497343
-3.9627936	skratta	-0.0632975
-4.31631	japanskt	-0.0632975
-4.31631	tempelfragment	-0.0632975
-3.5535185	ligger	-0.098582774
-4.31631	gomt	-0.0632975
-3.8193018	strax	-0.0632975
-4.131418	midnatt	-0.0632975
-4.131418	ottio	-0.0632975
-4.31631	femhundrasextiotvo	-0.0632975
-3.711629	nittiotre	-0.0632975
-3.9627936	femtiootta	-0.0632975
-3.9627936	sexhundrasjutton	-0.34700584
-3.711629	nittioett	-0.0632975
-4.31631	hormoner	-0.0632975
-3.9627936	stress	-0.0632975
-3.8193018	vanliga	-0.0632975
-4.31631	gissningar	-0.0632975
-3.0571332	olika	-0.08539996
-4.31631	glomska	-0.0632975
-3.625418	dagen	-0.0632975
-4.31631	vasttysk	-0.0632975
-3.9627936	medborgare	-0.34700584
-4.31631	handlingen	-0.0632975
-4.31631	svorforklarade	-0.0632975
-4.31631	suggestion	-0.0632975
-3.625418	molet	-0.17152499
-4.131418	resan	-0.0632975
-4.31631	flimrande	-0.0632975
-4.31631	mongskiftande	-0.0632975
-4.31631	symbolladdning	-0.0632975
-4.131418	oterfinns	-0.20183489
-3.9627936	drommar	-0.0632975
-4.31631	foremolen	-0.0632975
-3.9627936	utstrolar	-0.0632975
-4.31631	sjalvklar	-0.0632975
-4.31631	elegans	-0.0632975
-4.31631	formgivningen	-0.0632975
-4.131418	tranger	-0.0632975
-4.31631	betraktaren	-0.0632975
-4.131418	positivt	-0.0632975
-3.8193018	forsvann	-0.0632975
-4.31631	timslonga	-0.0632975
-4.131418	samtalet	-0.0632975
-4.31631	himmel	-0.0632975
-4.31631	jord	-0.0632975
-4.31631	ebbar	-0.0632975
-4.131418	sakta	-0.0632975
-4.31631	gron	-0.0632975
-4.131418	kostym	-0.0632975
-3.9627936	lagt	-0.0632975
-4.31631	golvet	-0.0632975
-4.31631	debuterade	-0.0632975
-4.31631	klubb	-0.0632975
-4.131418	forste	-0.0632975
-4.31631	aktive	-0.0632975
-4.31631	kubanen	-0.0632975
-4.131418	idrott	-0.0632975
-4.131418	tillvaxten	-0.0632975
-4.131418	verkligheten	-0.0632975
-4.31631	rusat	-0.0632975
-4.31631	fantastiska	-0.0632975
-4.31631	nivoer	-0.0632975
-3.8193018	verkar	-0.0632975
-4.131418	snarast	-0.0632975
-4.131418	okande	-0.0632975
-4.31631	skatteuttag	-0.0632975
-4.31631	drogberoendet	-0.0632975
-4.131418	handbollen	-0.20183489
-3.8193018	traffades	-0.12706538
-4.31631	forsorjt	-0.0632975
-3.9627936	senaste	-0.0632975
-3.8193018	h	-0.15058674
-3.8193018	lyfta	-0.0632975
-4.31631	sparade	-0.0632975
-4.31631	pensionspengar	-0.0632975
-4.131418	karriaren	-0.0632975
-4.31631	begart	-0.0632975
-3.8193018	ersattning	-0.12706538
-4.131418	naturvordsverket	-0.15058674
-4.31631	veterinarkostnader	-0.0632975
-3.8193018	somliga	-0.0632975
-4.31631	bojkottade	-0.0632975
-3.8193018	internationella	-0.0632975
-4.31631	frimarkskatalogerna	-0.0632975
-4.31631	begovad	-0.0632975
-4.31631	energisk	-0.0632975
-4.31631	kung	-0.0632975
-4.31631	aktivitet	-0.0632975
-3.8193018	bilderna	-0.0632975
-4.131418	text	-0.0632975
-3.711629	ordning	-0.113540724
-4.31631	draller	-0.0632975
-4.31631	skamflackar	-0.0632975
-4.31631	skonhetsfel	-0.0632975
-4.31631	antingen	-0.0632975
-4.131418	heta	-0.0632975
-4.31631	termalbad	-0.0632975
-4.31631	drink	-0.0632975
-4.31631	gungande	-0.0632975
-4.31631	magdans	-0.0632975
-4.131418	lota	-0.0632975
-3.9627936	sarskild	-0.0632975
-4.31631	statsadvokat	-0.0632975
-4.31631	bevaka	-0.0632975
-4.131418	samhallets	-0.0632975
-4.31631	rattskonflikter	-0.0632975
-4.31631	timmars	-0.0632975
-4.131418	mellanrum	-0.0632975
-4.131418	fyrahundratjugosju	-0.20183489
-3.8193018	nitton	-0.0632975
-4.131418	fyrahundratrettiotre	-0.20183489
-4.31631	trehundrasextiotvo	-0.0632975
-3.8193018	trettiootta	-0.0632975
-4.31631	femhundratrettiofyra	-0.0632975
-4.31631	brevskrivaren	-0.0632975
-3.8193018	lamnade	-0.0632975
-3.625418	uppgifter	-0.15058674
-4.131418	publicering	-0.0632975
-4.31631	forebyggande	-0.0632975
-4.31631	gud	-0.0632975
-3.9627936	hittat	-0.0632975
-4.31631	harnast	-0.0632975
-3.8193018	tyst	-0.0632975
-4.31631	glaset	-0.0632975
-3.711629	handen	-0.21069114
-4.31631	sorad	-0.0632975
-4.31631	stolthet	-0.0632975
-3.711629	huset	-0.113540724
-4.31631	forspel	-0.0632975
-4.31631	inletts	-0.0632975
-4.31631	frogad	-0.0632975
-4.131418	hundratals	-0.0632975
-4.131418	hangde	-0.0632975
-4.31631	skinn	-0.0632975
-3.9627936	ogonen	-0.0632975
-4.131418	praktiska	-0.0632975
-4.131418	lakarna	-0.0632975
-3.9627936	behandling	-0.0632975
-4.131418	ljusa	-0.0632975
-4.131418	nickade	-0.0632975
-3.711629	satte	-0.113540724
-4.31631	huk	-0.0632975
-4.31631	etthundraottioett	-0.0632975
-3.8193018	femtiotre	-0.0632975
-4.131418	niohundratjugoett	-0.20183489
-4.31631	anade	-0.0632975
-4.31631	hangande	-0.0632975
-4.31631	oterstod	-0.0632975
-4.31631	presenten	-0.0632975
-4.31631	fas	-0.0632975
-4.31631	trestegsraket	-0.0632975
-4.31631	beloningskedja	-0.0632975
-4.31631	utgjorde	-0.0632975
-4.31631	avtalen	-0.0632975
-4.31631	oformonliga	-0.0632975
-3.9627936	kommunen	-0.0632975
-4.131418	svara	-0.0632975
-4.31631	inlosen	-0.0632975
-4.31631	fastigheter	-0.0632975
-4.131418	vars	-0.0632975
-3.9627936	agare	-0.0632975
-3.711629	vagrar	-0.113540724
-3.711629	salja	-0.0632975
-4.31631	frivilligt	-0.0632975
-4.31631	koka	-0.0632975
-4.31631	artsoppa	-0.0632975
-4.31631	bot	-0.0632975
-4.31631	tacksam	-0.0632975
-4.31631	bensindunken	-0.0632975
-4.31631	operationsomrodet	-0.0632975
-4.31631	tacks	-0.0632975
-4.31631	steril	-0.0632975
-4.131418	duk	-0.0632975
-4.31631	sakerhetstruppernas	-0.0632975
-4.31631	motaktioner	-0.0632975
-4.31631	voldsamma	-0.0632975
-4.131418	misstankta	-0.0632975
-4.131418	skjuts	-0.0632975
-3.5535185	ned	-0.1369904
-4.31631	resebranschen	-0.0632975
-3.8193018	riktigt	-0.0632975
-4.131418	konkurrera	-0.0632975
-3.9627936	loner	-0.15058674
-4.131418	barnslig	-0.0632975
-4.31631	langtan	-0.0632975
-3.9627936	karleken	-0.15058674
-4.131418	stunden	-0.0632975
-4.31631	gomd	-0.0632975
-4.131418	buskarna	-0.0632975
-4.131418	fyrahundrafyrtiosju	-0.20183489
-4.31631	sjunger	-0.0632975
-3.8193018	ibland	-0.0632975
-3.9627936	knappt	-0.0632975
-4.31631	horbart	-0.0632975
-4.31631	visk	-0.0632975
-4.31631	lita	-0.0632975
-3.3072956	folk	-0.14715968
-3.8193018	tills	-0.0632975
-4.31631	eventuellt	-0.0632975
-4.31631	bevisar	-0.0632975
-4.131418	fortjanar	-0.0632975
-4.131418	motsatsen	-0.20183489
-4.31631	undantagslost	-0.0632975
-4.131418	ovanligt	-0.0632975
-4.31631	bemotta	-0.0632975
-4.31631	integrerar	-0.0632975
-4.131418	aspekter	-0.0632975
-4.131418	helhet	-0.0632975
-3.8193018	radd	-0.21069114
-4.31631	glasogon	-0.0632975
-3.9627936	ater	-0.0632975
-4.31631	gass	-0.0632975
-4.31631	hons	-0.0632975
-4.31631	ander	-0.0632975
-4.31631	fisk	-0.0632975
-3.8193018	foljer	-0.12706538
-4.31631	bon	-0.0632975
-4.131418	song	-0.0632975
-4.31631	renhoriga	-0.0632975
-4.31631	revolverman	-0.0632975
-4.31631	rycker	-0.0632975
-4.31631	varnlosa	-0.0632975
-4.31631	bonders	-0.0632975
-3.491849	hjalp	-0.14941508
-4.31631	bilforaren	-0.0632975
-3.3072956	personer	-0.11736213
-4.31631	flickans	-0.0632975
-4.31631	sallskap	-0.0632975
-4.31631	tvohundrafyrtiotvo	-0.0632975
-4.31631	niohundrasextio	-0.0632975
-4.31631	fyrahundratrettionio	-0.0632975
-4.31631	ukrainas	-0.0632975
-4.131418	forutsattningar	-0.0632975
-3.8193018	ifron	-0.0632975
-3.9627936	doliga	-0.0632975
-4.31631	forsumma	-0.0632975
-3.8193018	skaffa	-0.113540724
-4.131418	personliga	-0.0632975
-4.31631	chans	-0.0632975
-3.9627936	stark	-0.0632975
-4.131418	nytta	-0.20183489
-4.31631	redovisa	-0.0632975
-3.3072956	fore	-0.10475273
-4.31631	nyor	-0.0632975
-3.5535185	regeringen	-0.087692924
-3.9627936	kravde	-0.15058674
-4.31631	krigsmakten	-0.0632975
-3.5535185	forst	-0.06329753
-4.31631	fardigstalla	-0.0632975
-3.9627936	lista	-0.15058674
-4.31631	tillfongatagna	-0.0632975
-4.31631	stadgades	-0.0632975
-4.31631	socken	-0.0632975
-3.9627936	skola	-0.0632975
-4.31631	utbildad	-0.0632975
-4.131418	fort	-0.0632975
-4.31631	kassoren	-0.0632975
-4.131418	stoppat	-0.20183489
-4.31631	sedlarna	-0.0632975
-4.131418	kassetten	-0.0632975
-4.31631	oerhord	-0.0632975
-3.711629	humor	-0.0632975
-4.31631	frackhet	-0.0632975
-4.131418	militara	-0.0632975
-3.9627936	mista	-0.0632975
-4.31631	asfalterade	-0.0632975
-4.31631	nattvagarna	-0.0632975
-4.31631	fina	-0.0632975
-4.131418	sjalvklara	-0.0632975
-3.5535185	tankar	-0.1369904
-3.9627936	tankt	-0.0632975
-4.31631	bognat	-0.0632975
-4.31631	fornuftiga	-0.0632975
-4.31631	fornumstiga	-0.0632975
-4.31631	ideologiskt	-0.0632975
-3.9627936	vanster	-0.0632975
-3.491849	ingenting	-0.14941508
-4.31631	overs	-0.0632975
-4.31631	partipolitik	-0.0632975
-4.31631	arbetslosheten	-0.0632975
-3.8193018	unga	-0.0632975
-4.31631	arkitekter	-0.0632975
-3.9627936	okat	-0.0632975
-4.131418	kortare	-0.0632975
-4.31631	tillfalliga	-0.0632975
-4.31631	anstallningarna	-0.0632975
-4.31631	investeringar	-0.0632975
-4.131418	halsa	-0.20183489
-3.9627936	lagre	-0.0632975
-4.131418	tak	-0.0632975
-4.31631	ersattningen	-0.0632975
-4.131418	desto	-0.0632975
-4.131418	motivet	-0.0632975
-4.31631	familjerna	-0.0632975
-4.31631	lagst	-0.0632975
-4.31631	avlonade	-0.0632975
-4.31631	ledigheten	-0.0632975
-3.8193018	per	-0.12706538
-4.31631	styrelsers	-0.0632975
-3.711629	ansvar	-0.113540724
-4.131418	numera	-0.0632975
-4.31631	lagfast	-0.0632975
-4.31631	skolor	-0.0632975
-4.31631	otur	-0.0632975
-4.31631	sittande	-0.0632975
-4.131418	dyra	-0.0632975
-4.31631	lokaler	-0.0632975
-4.31631	usla	-0.0632975
-4.31631	laromedel	-0.0632975
-3.491849	hander	-0.14941508
-4.131418	allra	-0.0632975
-4.31631	korta	-0.0632975
-3.9627936	veckor	-0.0632975
-4.31631	orligen	-0.0632975
-4.31631	hilmer	-0.0632975
-4.31631	elsy	-0.0632975
-4.131418	forsman	-0.20183489
-4.31631	lena	-0.0632975
-4.31631	tornqvist	-0.0632975
-4.31631	algot	-0.0632975
-4.31631	rasmusson	-0.0632975
-4.31631	pia	-0.0632975
-4.31631	lundkvist	-0.0632975
-4.31631	artur	-0.0632975
-4.131418	soderqvist	-0.20183489
-4.31631	valter	-0.0632975
-4.31631	landstrom	-0.0632975
-4.31631	torsten	-0.0632975
-4.31631	svantesson	-0.0632975
-4.31631	klas	-0.0632975
-4.31631	eugenia	-0.0632975
-4.31631	palmqvist	-0.0632975
-4.31631	marita	-0.0632975
-4.31631	hedstrom	-0.0632975
-4.31631	lindesberg	-0.0632975
-4.31631	siljansnas	-0.0632975
-4.31631	simrishamn	-0.0632975
-4.31631	sponga	-0.0632975
-4.31631	mjolby	-0.0632975
-4.31631	sofia	-0.0632975
-4.31631	alno	-0.0632975
-4.31631	vattholma	-0.0632975
-4.31631	osterbymo	-0.0632975
-4.131418	motte	-0.0632975
-3.8193018	fattiga	-0.0632975
-4.131418	andas	-0.0632975
-3.625418	resultatet	-0.098582774
-3.9627936	monster	-0.15058674
-4.31631	marknad	-0.0632975
-3.9627936	skydda	-0.15058674
-4.31631	medarbetare	-0.0632975
-4.31631	mordet	-0.0632975
-4.131418	otgarder	-0.20183489
-4.131418	kvalitet	-0.20183489
-4.131418	paret	-0.0632975
-3.9627936	upprord	-0.15058674
-4.131418	soledes	-0.0632975
-3.8193018	programmet	-0.0632975
-4.31631	gorden	-0.0632975
-4.131418	centimeter	-0.0632975
-4.31631	bollen	-0.0632975
-4.131418	fylla	-0.0632975
-4.31631	justera	-0.0632975
-4.131418	cell	-0.0632975
-4.131418	riktning	-0.20183489
-4.31631	luta	-0.0632975
-4.31631	meny	-0.0632975
-4.31631	granska	-0.0632975
-4.31631	satsa	-0.0632975
-4.31631	varmeanlaggning	-0.0632975
-4.31631	retur	-0.0632975
-4.31631	bakstreck	-0.0632975
-4.131418	monad	-0.0632975
-4.131418	bockerna	-0.0632975
-4.131418	skrivna	-0.0632975
-4.31631	ungersk	-0.0632975
-4.31631	prast	-0.0632975
-4.31631	munk	-0.0632975
-3.711629	levde	-0.0632975
-4.31631	sjuttonhundratalet	-0.0632975
-4.131418	sextioett	-0.0632975
-4.31631	femhundrafyrtiosju	-0.0632975
-4.131418	femtiosju	-0.0632975
-4.31631	ottahundratjugoett	-0.0632975
-4.31631	tvohundrafemtiofem	-0.0632975
-4.131418	skvallra	-0.20183489
-4.31631	kandisar	-0.0632975
-4.31631	kandisskvallret	-0.0632975
-4.31631	utbrett	-0.0632975
-3.3898418	min	-0.06329748
-4.131418	mening	-0.0632975
-4.31631	hollbar	-0.0632975
-4.31631	osikt	-0.0632975
-3.4378574	eftersom	-0.098582774
-4.31631	forlangningen	-0.0632975
-4.131418	oro	-0.20183489
-4.31631	historikerna	-0.0632975
-4.31631	avfardar	-0.0632975
-3.9627936	samband	-0.0632975
-4.131418	prinsen	-0.20183489
-4.31631	vampyren	-0.0632975
-4.31631	rumanska	-0.0632975
-3.9627936	myndigheterna	-0.0632975
-4.31631	insett	-0.0632975
-4.31631	tjana	-0.0632975
-4.31631	legenden	-0.0632975
-3.8193018	koper	-0.0632975
-3.8193018	dels	-0.113540724
-3.9627936	datorer	-0.0632975
-3.711629	program	-0.113540724
-4.31631	telefonrakningen	-0.0632975
-4.131418	massor	-0.20183489
-4.31631	varor	-0.0632975
-4.131418	internet	-0.15058674
-3.711629	lika	-0.10475273
-4.31631	penningpolitik	-0.0632975
-4.131418	framsta	-0.0632975
-4.131418	itu	-0.0632975
-4.31631	inflationsforvantningar	-0.0632975
-4.31631	nittonhundratalet	-0.0632975
-4.131418	striden	-0.0632975
-3.9627936	hoger	-0.15058674
-4.31631	praglats	-0.0632975
-4.31631	olikheter	-0.0632975
-4.31631	synen	-0.0632975
-3.8193018	rattvisa	-0.12706538
-4.31631	hapnadsvackande	-0.0632975
-4.31631	aktivister	-0.0632975
-4.31631	protesterar	-0.0632975
-4.31631	overgrepp	-0.0632975
-4.131418	djur	-0.0632975
-3.8193018	utsatta	-0.0632975
-3.9627936	vold	-0.0632975
-4.131418	lidande	-0.20183489
-4.131418	uppger	-0.20183489
-4.131418	drabbas	-0.0632975
-4.31631	skakningar	-0.0632975
-3.711629	ena	-0.0632975
-3.9627936	handerna	-0.0632975
-4.31631	konstant	-0.0632975
-4.31631	stelhet	-0.0632975
-4.31631	hofterna	-0.0632975
-4.31631	pulserande	-0.0632975
-3.711629	kansla	-0.17036636
-4.31631	formogenhet	-0.0632975
-3.625418	daremot	-0.0632975
-4.131418	studiemedel	-0.0632975
-4.31631	rantor	-0.0632975
-4.31631	kapitalinkomster	-0.0632975
-4.31631	ingor	-0.0632975
-4.31631	inkomst	-0.0632975
-4.31631	provas	-0.0632975
-3.711629	forslag	-0.0632975
-4.31631	serveringar	-0.0632975
-4.31631	holet	-0.0632975
-4.31631	tacktes	-0.0632975
-4.31631	tunnelbaneresenarerna	-0.0632975
-4.31631	marknivo	-0.0632975
-4.31631	arbetarrorelsen	-0.0632975
-3.9627936	modern	-0.0632975
-4.31631	skattepolitik	-0.0632975
-3.9627936	minskar	-0.0632975
-4.31631	provisorier	-0.0632975
-4.31631	olyckliga	-0.0632975
-4.131418	undantag	-0.0632975
-3.711629	standigt	-0.0632975
-4.31631	lappande	-0.0632975
-4.31631	skattetacket	-0.0632975
-4.31631	etthundrasjutton	-0.0632975
-4.31631	fyrahundratio	-0.0632975
-3.625418	sextiosju	-0.0632975
-4.131418	trehundraottioett	-0.20183489
-4.131418	tjugotre	-0.0632975
-4.31631	trehundrafyrtiotvo	-0.0632975
-3.8193018	trettiofem	-0.0632975
-4.31631	ottahundrafemtiotre	-0.0632975
-3.3466105	val	-0.06329753
-3.9627936	snarare	-0.0632975
-4.31631	billigast	-0.0632975
-4.31631	samarbetsprojekt	-0.0632975
-4.131418	gemensamma	-0.0632975
-4.31631	rallyraven	-0.0632975
-4.31631	okenrav	-0.0632975
-4.31631	spora	-0.0632975
-4.31631	hel	-0.0632975
-3.9627936	rad	-0.0632975
-4.131418	tidiga	-0.0632975
-4.31631	skandaler	-0.0632975
-4.131418	torde	-0.0632975
-4.31631	ense	-0.0632975
-4.31631	opinioner	-0.0632975
-4.31631	lattrorliga	-0.0632975
-4.31631	beredskapsarbeten	-0.0632975
-4.31631	satsning	-0.0632975
-4.31631	arbetsmiljon	-0.0632975
-3.8193018	goras	-0.12706538
-4.31631	dundrar	-0.0632975
-4.31631	bilar	-0.0632975
-4.31631	egendomen	-0.0632975
-3.625418	forsokte	-0.0632975
-4.31631	vagg	-0.0632975
-4.31631	undfly	-0.0632975
-4.31631	nuet	-0.0632975
-4.31631	initiativet	-0.0632975
-3.8193018	reste	-0.12706538
-4.131418	mej	-0.0632975
-4.31631	kikade	-0.0632975
-4.31631	lodan	-0.0632975
-4.31631	trehundrasjuttiootta	-0.0632975
-3.9627936	fyrtiosju	-0.0632975
-4.131418	skyddade	-0.0632975
-4.131418	tag	-0.0632975
-4.31631	industriella	-0.0632975
-4.131418	medforde	-0.0632975
-3.9627936	politisk	-0.0632975
-3.237961	samma	-0.076681025
-4.131418	effekt	-0.0632975
-4.31631	juste	-0.0632975
-4.31631	penslar	-0.0632975
-4.31631	glas	-0.0632975
-4.31631	tvatta	-0.0632975
-4.31631	penslarna	-0.0632975
-4.31631	lagstiftning	-0.0632975
-4.131418	inslag	-0.0632975
-4.31631	forvonar	-0.0632975
-3.8193018	minst	-0.0632975
-4.31631	internationellt	-0.0632975
-4.131418	glantan	-0.0632975
-4.31631	ropa	-0.0632975
-4.31631	skicklighet	-0.0632975
-4.131418	interna	-0.0632975
-4.31631	externa	-0.0632975
-4.31631	kommunikationer	-0.0632975
-4.31631	entydig	-0.0632975
-4.31631	foretagsstrategi	-0.0632975
-4.131418	besviken	-0.0632975
-3.9627936	blanda	-0.0632975
-4.31631	degen	-0.0632975
-3.711629	ovriga	-0.087692924
-4.31631	lumpen	-0.0632975
-3.8193018	plats	-0.12706538
-4.31631	formodas	-0.0632975
-3.4378574	bort	-0.0854177
-4.31631	husrum	-0.0632975
-4.31631	foda	-0.0632975
-4.31631	trehundratrettiotvo	-0.0632975
-4.31631	tvohundratolv	-0.0632975
-3.9627936	tjugofem	-0.0632975
-4.31631	femhundranittionio	-0.0632975
-3.9627936	femtionio	-0.0632975
-4.131418	tvohundrasex	-0.20183489
-4.131418	husets	-0.0632975
-4.31631	exterior	-0.0632975
-4.131418	klarade	-0.20183489
-4.31631	innanmatet	-0.0632975
-4.31631	forstort	-0.0632975
-3.9627936	rok	-0.15058674
-3.625418	vatten	-0.2898724
-4.31631	misstanken	-0.0632975
-4.31631	redaktorer	-0.0632975
-4.31631	verklighetens	-0.0632975
-3.625418	uppgift	-0.098582774
-4.31631	spegla	-0.0632975
-4.131418	massmedierna	-0.20183489
-4.31631	slukade	-0.0632975
-4.31631	forvandlas	-0.0632975
-4.31631	firmamarke	-0.0632975
-4.31631	mjolkallergiker	-0.0632975
-4.31631	stro	-0.0632975
-4.31631	portionsposar	-0.0632975
-4.31631	tabletterna	-0.0632975
-4.31631	laktos	-0.0632975
-4.31631	medborgarna	-0.0632975
-4.31631	demokratins	-0.0632975
-3.9627936	kalla	-0.0632975
-3.711629	dess	-0.098582774
-4.31631	vaxande	-0.0632975
-4.31631	informationsproblem	-0.0632975
-4.131418	skatt	-0.0632975
-4.31631	forutsatter	-0.0632975
-4.31631	lasekrets	-0.0632975
-4.131418	kannas	-0.0632975
-4.31631	meningsfull	-0.0632975
-4.31631	aggressioner	-0.0632975
-4.31631	overskottsenergi	-0.0632975
-4.31631	terapi	-0.0632975
-4.131418	ringer	-0.0632975
-4.31631	skaller	-0.0632975
-4.31631	dagisforestondaren	-0.0632975
-4.131418	visst	-0.0632975
-4.31631	skyn	-0.0632975
-3.5535185	klarat	-0.20814227
-3.9627936	oskadda	-0.0632975
-4.131418	hamtas	-0.0632975
-4.31631	somnlos	-0.0632975
-4.31631	vandrat	-0.0632975
-4.31631	tysta	-0.0632975
-4.131418	jagad	-0.20183489
-3.8193018	minnen	-0.12706538
-4.31631	immun	-0.0632975
-4.31631	termitsoldaternas	-0.0632975
-4.31631	kemiska	-0.0632975
-3.711629	vapen	-0.35385182
-4.31631	ljog	-0.0632975
-4.31631	par	-0.0632975
-4.131418	angelaget	-0.0632975
-4.31631	ode	-0.0632975
-4.31631	programtabloutfyllnad	-0.0632975
-4.31631	ryttare	-0.0632975
-4.31631	red	-0.0632975
-4.31631	nerslag	-0.0632975
-3.8193018	stannade	-0.0632975
-3.8193018	lyssnade	-0.0632975
-4.131418	tystnaden	-0.20183489
-4.131418	tingsratten	-0.0632975
-4.31631	domde	-0.0632975
-4.131418	boter	-0.0632975
-4.31631	vollande	-0.0632975
-4.31631	kroppsskada	-0.0632975
-4.31631	olaga	-0.0632975
-4.31631	hot	-0.0632975
-4.31631	grogrund	-0.0632975
-4.31631	myter	-0.0632975
-4.31631	vandringshistorier	-0.0632975
-4.131418	galen	-0.0632975
-3.3072956	inget	-0.12912028
-4.31631	dog	-0.0632975
-4.31631	fyrahundrafyrtiootta	-0.0632975
-3.9627936	tjugotvo	-0.0632975
-4.31631	niohundratjugofyra	-0.0632975
-3.9627936	fyrtiotre	-0.0632975
-4.31631	femhundranittiofyra	-0.0632975
-4.31631	niohundra	-0.0632975
-3.9627936	klara	-0.21069114
-4.31631	plugga	-0.0632975
-4.31631	katter	-0.0632975
-4.131418	fyllt	-0.0632975
-4.31631	tavlar	-0.0632975
-4.31631	veteranklassen	-0.0632975
-4.31631	vantat	-0.0632975
-4.131418	givet	-0.20183489
-4.131418	kamrater	-0.0632975
-4.31631	filmerna	-0.0632975
-4.131418	vander	-0.20183489
-4.31631	publik	-0.0632975
-4.31631	drombild	-0.0632975
-4.31631	sprack	-0.0632975
-4.31631	fjordar	-0.0632975
-4.31631	fjall	-0.0632975
-3.625418	ytterligare	-0.098582774
-4.31631	foretagets	-0.0632975
-3.8193018	ansikte	-0.12706538
-4.31631	mangden	-0.0632975
-4.131418	deltagare	-0.0632975
-4.31631	proceduren	-0.0632975
-4.31631	niohundrasextiotvo	-0.0632975
-4.31631	fetma	-0.0632975
-4.31631	riskfaktor	-0.0632975
-4.131418	sorters	-0.0632975
-4.31631	vagplanerna	-0.0632975
-4.31631	lanen	-0.0632975
-4.31631	plockats	-0.0632975
-4.131418	projekt	-0.0632975
-4.31631	tidigarelagts	-0.0632975
-4.131418	togs	-0.0632975
-4.31631	terapeutiska	-0.0632975
-4.131418	behandlingen	-0.0632975
-4.31631	ineffektiv	-0.0632975
-3.9627936	omojlig	-0.15058674
-4.31631	telekommunikationsstandarden	-0.0632975
-4.31631	videokonferenssystem	-0.0632975
-4.31631	existerar	-0.0632975
-4.131418	uppfyller	-0.0632975
-4.31631	kraven	-0.0632975
-4.131418	bildkonferenser	-0.0632975
-3.711629	via	-0.0632975
-4.131418	persondatorer	-0.0632975
-4.31631	foreningen	-0.0632975
-4.131418	bestor	-0.0632975
-3.8193018	enskilda	-0.0632975
-3.9627936	medlemmar	-0.0632975
-4.31631	ombud	-0.0632975
-4.31631	dansare	-0.0632975
-4.31631	strikt	-0.0632975
-4.31631	fysiskt	-0.0632975
-4.31631	disciplin	-0.0632975
-4.31631	fallts	-0.0632975
-4.131418	domstol	-0.15058674
-3.9627936	forhandlingar	-0.0632975
-4.31631	fack	-0.0632975
-4.31631	omplaceras	-0.0632975
-4.131418	fruktansvart	-0.0632975
-3.625418	kort	-0.098582774
-4.131418	raden	-0.0632975
-3.9627936	frogor	-0.0632975
-4.31631	mesta	-0.0632975
-4.31631	forarbetet	-0.0632975
-4.131418	okade	-0.0632975
-4.31631	valstondet	-0.0632975
-4.31631	sekunden	-0.0632975
-4.131418	samman	-0.0632975
-4.131418	harliga	-0.0632975
-4.31631	nere	-0.0632975
-4.131418	barnet	-0.0632975
-4.131418	tjejerna	-0.0632975
-4.31631	bit	-0.0632975
-4.31631	femhundrasjuttiofyra	-0.0632975
-3.711629	tolv	-0.098582774
-4.131418	sexhundraottiotre	-0.20183489
-4.31631	amatorastronom	-0.0632975
-3.9627936	perfekt	-0.15058674
-4.131418	ulliga	-0.0632975
-4.31631	molntussar	-0.0632975
-4.31631	seglade	-0.0632975
-4.31631	vinden	-0.0632975
-3.3466105	annu	-0.10475273
-3.711629	fri	-0.113540724
-4.31631	fot	-0.0632975
-4.31631	operation	-0.0632975
-4.31631	dorrknackning	-0.0632975
-4.31631	fridfull	-0.0632975
-4.31631	behandlar	-0.0632975
-4.31631	reportern	-0.0632975
-4.31631	siffrorna	-0.0632975
-4.31631	rimstugor	-0.0632975
-4.31631	vakor	-0.0632975
-4.31631	grytor	-0.0632975
-4.31631	jasande	-0.0632975
-4.31631	deg	-0.0632975
-4.31631	spisen	-0.0632975
-4.31631	lararna	-0.0632975
-4.31631	foste	-0.0632975
-3.9627936	hit	-0.0632975
-4.31631	varldslaget	-0.0632975
-4.31631	valfarden	-0.0632975
-4.31631	vaderleken	-0.0632975
-4.31631	avsogade	-0.0632975
-4.131418	streck	-0.0632975
-4.131418	rader	-0.0632975
-4.31631	etthundratjugonio	-0.0632975
-3.8193018	fjorton	-0.0632975
-4.31631	femhundratretton	-0.0632975
-4.31631	tvohundraottiotvo	-0.0632975
-4.131418	april	-0.0632975
-4.31631	battring	-0.0632975
-4.31631	utkiksplats	-0.0632975
-4.31631	slingrande	-0.0632975
-4.31631	grej	-0.0632975
-4.31631	kliver	-0.0632975
-4.31631	bussen	-0.0632975
-4.31631	grabben	-0.0632975
-4.31631	manovreringen	-0.0632975
-4.31631	navigera	-0.0632975
-4.31631	chefen	-0.0632975
-4.131418	statliga	-0.0632975
-3.711629	sa	-0.113540724
-4.131418	nej	-0.0632975
-3.711629	chansen	-0.5688547
-4.31631	minnas	-0.0632975
-4.31631	storyn	-0.0632975
-3.3466105	forsoker	-0.0632975
-4.31631	bortse	-0.0632975
-4.31631	vassa	-0.0632975
-4.31631	lukten	-0.0632975
-4.31631	desperation	-0.0632975
-4.31631	annonserna	-0.0632975
-4.131418	sprider	-0.0632975
-3.625418	omedelbart	-0.0632975
-4.31631	oskodarna	-0.0632975
-4.131418	unge	-0.0632975
-4.31631	utforsokaren	-0.0632975
-4.31631	samlades	-0.0632975
-4.31631	molfollan	-0.0632975
-4.31631	mandatperioden	-0.0632975
-4.131418	oppen	-0.0632975
-4.31631	installningen	-0.0632975
-4.131418	publiken	-0.0632975
-4.31631	roas	-0.0632975
-4.31631	fargade	-0.0632975
-4.31631	druvkarna	-0.0632975
-4.31631	fastnat	-0.0632975
-4.31631	hakan	-0.0632975
-3.5535185	holl	-0.09401209
-4.31631	klase	-0.0632975
-4.31631	oviss	-0.0632975
-4.131418	spred	-0.0632975
-4.31631	gnistor	-0.0632975
-4.131418	slutade	-0.0632975
-3.9627936	slo	-0.0632975
-4.31631	serven	-0.0632975
-4.31631	spelet	-0.0632975
-3.711629	fungera	-0.10475273
-3.711629	tyckte	-0.18238527
-4.31631	sagan	-0.0632975
-4.131418	laste	-0.0632975
-4.131418	majoriteten	-0.0632975
-3.8193018	tvingats	-0.0632975
-4.31631	vika	-0.0632975
-4.31631	numer	-0.0632975
-3.8193018	foretag	-0.12706538
-3.9627936	domdes	-0.0632975
-4.31631	sluten	-0.0632975
-4.31631	psykiatrisk	-0.0632975
-4.131418	vord	-0.0632975
-3.625418	lar	-0.0632975
-4.31631	dopp	-0.0632975
-4.31631	trenden	-0.0632975
-4.31631	konjunkturen	-0.0632975
-4.31631	tillfallig	-0.0632975
-4.31631	krusning	-0.0632975
-4.31631	stalle	-0.0632975
-4.131418	hall	-0.0632975
-4.31631	jordgubbarna	-0.0632975
-4.31631	ror	-0.0632975
-4.131418	forsiktigt	-0.20183489
-4.31631	tomas	-0.0632975
-4.131418	gunnarsson	-0.20183489
-4.31631	astrid	-0.0632975
-4.31631	lonn	-0.0632975
-4.31631	joel	-0.0632975
-4.31631	frisk	-0.0632975
-4.31631	anny	-0.0632975
-4.31631	hjalmarsson	-0.0632975
-4.31631	lisa	-0.0632975
-4.131418	brandt	-0.20183489
-3.9627936	hogstrom	-0.34700584
-4.31631	teresia	-0.0632975
-4.31631	zetterberg	-0.0632975
-4.31631	tage	-0.0632975
-4.31631	gustafsson	-0.0632975
-4.31631	gosta	-0.0632975
-4.31631	lindahl	-0.0632975
-4.31631	leif	-0.0632975
-4.31631	lindfors	-0.0632975
-4.31631	gaddede	-0.0632975
-4.31631	undrom	-0.0632975
-4.31631	bjuv	-0.0632975
-4.31631	djura	-0.0632975
-4.31631	arendal	-0.0632975
-4.31631	pajala	-0.0632975
-4.31631	billesholm	-0.0632975
-4.31631	enviken	-0.0632975
-4.31631	mattisudden	-0.0632975
-4.31631	enkoping	-0.0632975
-4.31631	laholm	-0.0632975
-4.31631	intet	-0.0632975
-3.9627936	radio	-0.0632975
-4.31631	lamnas	-0.0632975
-4.131418	magen	-0.0632975
-4.31631	hoppades	-0.0632975
-3.9627936	system	-0.0632975
-4.131418	bagge	-0.0632975
-4.131418	minskat	-0.0632975
-4.131418	passade	-0.0632975
-4.31631	ordet	-0.0632975
-4.31631	kasta	-0.0632975
-4.131418	fangelse	-0.0632975
-4.31631	otercirkulera	-0.0632975
-4.31631	rotera	-0.0632975
-4.31631	glida	-0.0632975
-4.31631	oterstall	-0.0632975
-4.31631	nodlage	-0.0632975
-4.131418	hundra	-0.0632975
-3.9627936	kontakter	-0.0632975
-4.31631	flakt	-0.0632975
-4.31631	bladdring	-0.0632975
-4.131418	adress	-0.0632975
-4.31631	arkiv	-0.0632975
-4.131418	fyrtio	-0.0632975
-4.31631	taklucka	-0.0632975
-4.131418	skiva	-0.20183489
-4.31631	loudness	-0.0632975
-3.9627936	nittiofem	-0.0632975
-4.31631	sjuhundratrettiotre	-0.0632975
-4.31631	ottahundratrettiofem	-0.0632975
-4.31631	tvohundratjugosju	-0.0632975
-4.31631	trehundratvo	-0.0632975
-4.31631	orimligt	-0.0632975
-4.131418	behovas	-0.0632975
-4.31631	tillagg	-0.0632975
-4.31631	bestammelsen	-0.0632975
-4.31631	avstamning	-0.0632975
-4.31631	deklarationen	-0.0632975
-4.31631	optimala	-0.0632975
-4.131418	skapa	-0.0632975
-4.31631	trevlig	-0.0632975
-4.31631	stel	-0.0632975
-4.131418	restaurang	-0.20183489
-4.131418	tidningen	-0.0632975
-4.31631	erbjudit	-0.0632975
-3.8193018	miljoner	-0.0632975
-4.31631	kr	-0.0632975
-3.711629	beratta	-0.20814227
-4.31631	sexskandaler	-0.0632975
-4.131418	amerikanska	-0.0632975
-4.31631	toppolitiker	-0.0632975
-4.31631	inblandade	-0.0632975
-3.9627936	natt	-0.0632975
-4.31631	offret	-0.0632975
-4.131418	lagenheten	-0.0632975
-3.9627936	garningsmannen	-0.0632975
-3.711629	funnits	-0.113540724
-3.9627936	platsen	-0.113540724
-4.31631	skriver	-0.0632975
-3.625418	valdigt	-0.0632975
-3.8193018	grundlaggande	-0.12706538
-4.31631	naringslara	-0.0632975
-3.711629	kande	-0.0632975
-4.131418	vikt	-0.0632975
-4.31631	stamde	-0.0632975
-4.31631	hukar	-0.0632975
-3.8193018	loga	-0.0632975
-3.8193018	dorren	-0.0632975
-4.31631	skruvar	-0.0632975
-4.31631	jultradet	-0.0632975
-4.131418	kand	-0.0632975
-4.31631	skodespelerska	-0.0632975
-4.31631	betjanas	-0.0632975
-4.31631	garderoben	-0.0632975
-4.31631	simmade	-0.0632975
-3.9627936	respektive	-0.0632975
-4.131418	sidor	-0.0632975
-4.31631	klippan	-0.0632975
-4.31631	skyla	-0.0632975
-4.31631	handdukar	-0.0632975
-3.9627936	greps	-0.0632975
-3.9627936	polis	-0.0632975
-4.31631	tillbringa	-0.0632975
-3.625418	natten	-0.09401209
-4.31631	ronforsok	-0.0632975
-4.31631	mordhot	-0.0632975
-4.131418	sent	-0.0632975
-4.31631	omsider	-0.0632975
-3.711629	dags	-0.36219087
-4.31631	prognoserna	-0.0632975
-4.31631	budget	-0.0632975
-4.31631	hunnit	-0.0632975
-4.31631	behandlad	-0.0632975
-3.9627936	riksdagen	-0.0632975
-4.31631	landstingets	-0.0632975
-4.31631	kris	-0.0632975
-3.8193018	losas	-0.12706538
-3.9627936	krava	-0.0632975
-3.8193018	kostnader	-0.21069114
-4.31631	flyktingars	-0.0632975
-4.31631	tandvord	-0.0632975
-3.8193018	hogre	-0.12706538
-4.31631	utbildningsnivo	-0.0632975
-4.31631	samhallsengagemang	-0.0632975
-4.131418	skapat	-0.0632975
-4.131418	medvetna	-0.0632975
-4.31631	sjalvstandiga	-0.0632975
-3.5535185	dessutom	-0.06329753
-4.31631	kulturer	-0.0632975
-4.131418	internationell	-0.0632975
-4.131418	samre	-0.0632975
-4.31631	lasare	-0.0632975
-4.31631	misstanksamma	-0.0632975
-4.31631	forklarade	-0.0632975
-4.31631	stodjer	-0.0632975
-4.131418	kampanjen	-0.0632975
-4.31631	helhjartat	-0.0632975
-4.31631	stors	-0.0632975
-4.31631	glimtvis	-0.0632975
-3.8193018	faktum	-0.25694183
-4.31631	ekipaget	-0.0632975
-4.131418	alltfor	-0.0632975
-4.31631	flummiga	-0.0632975
-4.131418	riktningar	-0.20183489
-4.31631	sexhundranittiosex	-0.0632975
-3.8193018	sjuttiofem	-0.0632975
-4.131418	trehundraotta	-0.20183489
-4.31631	etthundraottiosex	-0.0632975
-4.131418	likaledes	-0.0632975
-4.31631	oerhort	-0.0632975
-4.31631	omtyckt	-0.0632975
-4.131418	person	-0.0632975
-4.31631	lyssnarskara	-0.0632975
-4.31631	velat	-0.0632975
-3.711629	heller	-0.1497343
-4.131418	bevis	-0.0632975
-4.131418	lasningen	-0.0632975
-4.131418	intryck	-0.20183489
-4.31631	hastiga	-0.0632975
-4.31631	samordnade	-0.0632975
-3.9627936	foga	-0.0632975
-4.31631	genomtankta	-0.0632975
-4.31631	stallningstaganden	-0.0632975
-4.31631	ledamoterna	-0.0632975
-4.31631	historiska	-0.0632975
-4.31631	omrostning	-0.0632975
-4.31631	hollits	-0.0632975
-4.131418	forvonad	-0.0632975
-4.31631	miljonyheter	-0.0632975
-4.31631	riksdagsmannen	-0.0632975
-3.9627936	enorma	-0.0632975
-4.31631	framsteg	-0.0632975
-3.9627936	sova	-0.15058674
-4.131418	samlade	-0.0632975
-3.8193018	kunskap	-0.12706538
-4.31631	vardelos	-0.0632975
-4.31631	tillvaro	-0.0632975
-4.31631	spelregler	-0.0632975
-3.8193018	veckan	-0.0632975
-4.31631	julafton	-0.0632975
-4.31631	fatta	-0.0632975
-3.9627936	politiken	-0.0632975
-4.31631	trehundratretton	-0.0632975
-4.31631	sjuhundraarton	-0.0632975
-4.31631	uppenbarar	-0.0632975
-4.31631	dubbelprojektion	-0.0632975
-4.31631	paradishagring	-0.0632975
-4.31631	hamndeangel	-0.0632975
-4.31631	karln	-0.0632975
-4.31631	glor	-0.0632975
-4.131418	kameran	-0.0632975
-4.31631	skriker	-0.0632975
-4.31631	frogade	-0.0632975
-4.31631	katten	-0.0632975
-3.9627936	kvinnorna	-0.0632975
-3.9627936	bo	-0.0632975
-3.5535185	dom	-0.0632975
-4.31631	hamtar	-0.0632975
-3.5535185	bil	-0.16323985
-4.131418	snegla	-0.0632975
-3.8193018	vore	-0.0632975
-4.31631	finlandare	-0.0632975
-4.31631	robotar	-0.0632975
-4.31631	forhindra	-0.0632975
-4.31631	landstigning	-0.0632975
-4.31631	lordags	-0.0632975
-4.31631	lillasyster	-0.0632975
-4.31631	skamflackarna	-0.0632975
-4.31631	fordjupning	-0.0632975
-4.31631	identifikationen	-0.0632975
-4.131418	djuret	-0.0632975
-4.31631	lockande	-0.0632975
-4.31631	riskabla	-0.0632975
-4.31631	framtrada	-0.0632975
-4.31631	fogat	-0.0632975
-4.31631	gosse	-0.0632975
-3.9627936	tvingas	-0.0632975
-4.31631	ansoka	-0.0632975
-4.31631	monstringen	-0.0632975
-4.31631	hojdhoppare	-0.0632975
-4.31631	skadades	-0.0632975
-4.31631	allvarligt	-0.0632975
-4.31631	femhundrasextionio	-0.0632975
-4.31631	fyrahundratolv	-0.0632975
-4.131418	sextiotre	-0.0632975
-4.131418	etthundratjugootta	-0.20183489
-3.9627936	etablerade	-0.15058674
-3.9627936	partierna	-0.0632975
-4.31631	overtaktiska	-0.0632975
-3.9627936	jobba	-0.0632975
-4.31631	stramades	-0.0632975
-4.31631	vandor	-0.0632975
-4.131418	orsaken	-0.0632975
-4.31631	okand	-0.0632975
-4.31631	stjarnan	-0.0632975
-4.31631	planeter	-0.0632975
-4.31631	guldfyndigheter	-0.0632975
-4.131418	varken	-0.0632975
-4.31631	jattetunn	-0.0632975
-4.31631	jattestor	-0.0632975
-4.31631	snygg	-0.0632975
-3.8193018	tjej	-0.25694183
-4.131418	skrivit	-0.0632975
-3.711629	vidare	-0.113540724
-3.9627936	van	-0.15058674
-4.131418	undrar	-0.0632975
-3.5535185	varfor	-0.098582774
-3.8193018	tagit	-0.0632975
-4.31631	kvartett	-0.0632975
-4.31631	testpaneler	-0.0632975
-4.31631	verkligt	-0.0632975
-3.711629	roligt	-0.113540724
-4.31631	framholla	-0.0632975
-4.131418	billigaste	-0.0632975
-4.31631	enklaste	-0.0632975
-4.131418	sorterna	-0.0632975
-4.31631	vant	-0.0632975
-4.31631	jakt	-0.0632975
-4.31631	misshandlat	-0.0632975
-4.31631	bonden	-0.0632975
-4.31631	soner	-0.0632975
-4.131418	batonger	-0.0632975
-4.31631	aventyret	-0.0632975
-4.31631	orsakade	-0.0632975
-4.131418	voldsam	-0.0632975
-4.31631	publicitet	-0.0632975
-4.31631	upphojt	-0.0632975
-4.131418	lugn	-0.20183489
-4.31631	stank	-0.0632975
-4.31631	institutet	-0.0632975
-4.31631	kandisfotografer	-0.0632975
-4.31631	premiaren	-0.0632975
-4.131418	forvoning	-0.0632975
-4.31631	utvandigt	-0.0632975
-4.31631	delad	-0.0632975
-4.131418	ledning	-0.0632975
-4.31631	svangen	-0.0632975
-4.131418	hamta	-0.0632975
-4.131418	vinner	-0.0632975
-4.31631	verkstadsindustrin	-0.0632975
-4.31631	okning	-0.0632975
-3.711629	c	-0.17912711
-4.31631	samhallstjansten	-0.0632975
-4.131418	ostadkommit	-0.0632975
-4.31631	loste	-0.0632975
-4.31631	brottslighet	-0.0632975
-4.31631	avbrytas	-0.0632975
-4.31631	genererar	-0.0632975
-4.131418	offer	-0.0632975
-4.31631	flyktingstrommar	-0.0632975
-4.31631	diplomaterna	-0.0632975
-4.31631	fly	-0.0632975
-4.31631	hanns	-0.0632975
-4.31631	rostiga	-0.0632975
-4.31631	vrak	-0.0632975
-4.31631	fiskebotar	-0.0632975
-4.31631	buar	-0.0632975
-3.9627936	spelare	-0.0632975
-4.31631	gastande	-0.0632975
-3.625418	lag	-0.0632975
-4.31631	spoar	-0.0632975
-4.31631	datorn	-0.0632975
-3.8193018	hamnade	-0.12706538
-4.31631	bokstavligen	-0.0632975
-4.31631	historiens	-0.0632975
-4.31631	sophog	-0.0632975
-4.31631	areminnen	-0.0632975
-4.31631	framstoende	-0.0632975
-4.31631	sovjetiska	-0.0632975
-4.131418	ledare	-0.0632975
-4.31631	fyrahundranittiootta	-0.0632975
-4.31631	etthundranittiofem	-0.0632975
-4.31631	erfarenhet	-0.0632975
-4.31631	byggda	-0.0632975
-4.31631	dammar	-0.0632975
-4.31631	soldater	-0.0632975
-4.31631	hotas	-0.0632975
-3.8193018	vadret	-0.0632975
-4.31631	vedstapeln	-0.0632975
-3.711629	hog	-0.0632975
-4.131418	orkade	-0.0632975
-4.131418	kampa	-0.0632975
-4.131418	sjukdom	-0.0632975
-4.31631	rodd	-0.0632975
-4.131418	maximal	-0.0632975
-4.131418	anstrangning	-0.0632975
-4.31631	metern	-0.0632975
-4.31631	betyg	-0.0632975
-3.9627936	period	-0.0632975
-4.31631	lugnare	-0.0632975
-4.31631	intagning	-0.0632975
-4.131418	enstaka	-0.0632975
-3.9627936	prov	-0.15058674
-4.31631	jarnror	-0.0632975
-4.31631	bomber	-0.0632975
-4.31631	knallskott	-0.0632975
-4.31631	eksem	-0.0632975
-4.31631	psoriasis	-0.0632975
-4.31631	tongbadet	-0.0632975
-4.31631	sander	-0.0632975
-3.8193018	tanke	-0.0632975
-4.31631	dikt	-0.0632975
-3.9627936	garna	-0.0632975
-4.131418	rita	-0.0632975
-4.31631	eldsignalerna	-0.0632975
-4.31631	trabrickan	-0.0632975
-4.31631	lyste	-0.0632975
-4.31631	vitt	-0.0632975
-4.31631	morkhoriga	-0.0632975
-3.9627936	herrarna	-0.15058674
-4.31631	skrivet	-0.0632975
-3.9627936	storsta	-0.0632975
-4.131418	hast	-0.0632975
-4.31631	handstilen	-0.0632975
-4.31631	doma	-0.0632975
-3.5535185	talar	-0.0632975
-4.31631	oppet	-0.0632975
-4.31631	idiotregler	-0.0632975
-4.31631	foretagsamhetens	-0.0632975
-4.131418	villkor	-0.0632975
-4.31631	regeringsforhandlingarna	-0.0632975
-4.31631	informationslackorna	-0.0632975
-4.31631	kungen	-0.0632975
-4.31631	artist	-0.0632975
-4.31631	trofast	-0.0632975
-4.31631	halvmiljonen	-0.0632975
-4.31631	klarats	-0.0632975
-4.31631	fiskarbefolkningen	-0.0632975
-3.8193018	langs	-0.12706538
-4.131418	kusten	-0.0632975
-4.31631	olycksbodande	-0.0632975
-4.31631	havsstrommen	-0.0632975
-4.31631	rann	-0.0632975
-4.31631	intensivare	-0.0632975
-4.131418	testet	-0.0632975
-4.31631	ren	-0.0632975
-4.31631	lavendel	-0.0632975
-4.31631	avstressande	-0.0632975
-4.131418	verkan	-0.20183489
-4.31631	skvallerpressen	-0.0632975
-3.8193018	hittills	-0.12706538
-4.131418	affar	-0.0632975
-4.131418	nyligen	-0.0632975
-4.31631	debuterat	-0.0632975
-4.31631	representerade	-0.0632975
-4.31631	flertalet	-0.0632975
-4.31631	bibliotek	-0.0632975
-3.8193018	liksom	-0.0632975
-4.31631	indianer	-0.0632975
-3.9627936	omrodet	-0.0632975
-4.131418	konflikter	-0.0632975
-3.9627936	framst	-0.0632975
-4.31631	landfrogor	-0.0632975
-4.31631	niohundrasjuttiotre	-0.0632975
-4.31631	sexhundrafemtiotre	-0.0632975
-4.31631	grilla	-0.0632975
-4.131418	falsk	-0.0632975
-4.31631	havda	-0.0632975
-4.131418	medlemskap	-0.0632975
-4.31631	loser	-0.0632975
-4.31631	parallellen	-0.0632975
-4.31631	gror	-0.0632975
-4.31631	vaxer	-0.0632975
-4.31631	brister	-0.0632975
-4.31631	inferno	-0.0632975
-4.31631	inavel	-0.0632975
-4.31631	regression	-0.0632975
-4.31631	styra	-0.0632975
-4.131418	handa	-0.0632975
-4.31631	joystick	-0.0632975
-4.31631	blandas	-0.0632975
-4.31631	scener	-0.0632975
-4.131418	taget	-0.0632975
-4.31631	sorglig	-0.0632975
-3.8193018	historia	-0.12706538
-4.31631	skickade	-0.0632975
-4.131418	leda	-0.0632975
-4.31631	nybyggande	-0.0632975
-3.9627936	kunnat	-0.0632975
-4.31631	detaljerade	-0.0632975
-4.31631	sammanhangande	-0.0632975
-4.131418	forsaljningen	-0.0632975
-4.31631	hemmen	-0.0632975
-4.31631	lattotkomliga	-0.0632975
-4.31631	tjuvar	-0.0632975
-3.8193018	tjugosex	-0.0632975
-4.131418	niohundraett	-0.20183489
-4.31631	niohundrafyrtiofem	-0.0632975
-4.31631	tvohundrafyrtiofem	-0.0632975
-4.31631	minnesfunktioner	-0.0632975
-4.31631	bevarade	-0.0632975
-4.131418	forklara	-0.20183489
-4.31631	rattvisefroga	-0.0632975
-4.31631	gynnsamt	-0.0632975
-4.31631	varldsekonomin	-0.0632975
-4.31631	vantar	-0.0632975
-3.711629	sitter	-0.0632975
-4.31631	parlamentet	-0.0632975
-4.31631	opposition	-0.0632975
-4.31631	skatteutskottet	-0.0632975
-4.131418	planerar	-0.0632975
-4.131418	behandla	-0.0632975
-4.31631	motionsforslag	-0.0632975
-4.31631	betankande	-0.0632975
-4.131418	vantade	-0.20183489
-4.31631	storsinnat	-0.0632975
-3.8193018	svar	-0.0632975
-4.31631	landsbygden	-0.0632975
-4.31631	krossat	-0.0632975
-4.31631	varldsrekorden	-0.0632975
-4.31631	loparbanorna	-0.0632975
-4.131418	hosten	-0.0632975
-4.31631	konkursbon	-0.0632975
-3.8193018	j	-0.0632975
-4.31631	fotografier	-0.0632975
-4.31631	racker	-0.0632975
-4.31631	institutionella	-0.0632975
-4.31631	garanter	-0.0632975
-3.9627936	avgora	-0.0632975
-4.31631	tvist	-0.0632975
-4.31631	huruvida	-0.0632975
-4.131418	konst	-0.0632975
-4.131418	ej	-0.0632975
-4.31631	unionens	-0.0632975
-4.31631	medlemslander	-0.0632975
-4.31631	foralskad	-0.0632975
-4.131418	granne	-0.0632975
-3.8193018	valjer	-0.12706538
-4.31631	rekommendera	-0.0632975
-4.31631	paul	-0.0632975
-4.31631	blixt	-0.0632975
-4.31631	wester	-0.0632975
-4.31631	lisbeth	-0.0632975
-4.31631	malmgren	-0.0632975
-4.31631	naslund	-0.0632975
-4.31631	ronny	-0.0632975
-4.31631	claesson	-0.0632975
-4.31631	trustor	-0.0632975
-4.31631	inga-lill	-0.0632975
-4.31631	nygren	-0.0632975
-4.31631	kristoffersson	-0.0632975
-4.31631	edit	-0.0632975
-3.9627936	svard	-0.34700584
-4.31631	duved	-0.0632975
-4.31631	forsheda	-0.0632975
-4.31631	rentjarn	-0.0632975
-4.31631	katmandu	-0.0632975
-4.31631	varnamo	-0.0632975
-4.31631	visseltofta	-0.0632975
-4.31631	dakar	-0.0632975
-4.31631	hedekas	-0.0632975
-4.31631	deje	-0.0632975
-4.131418	smula	-0.0632975
-4.31631	gemensam	-0.0632975
-3.9627936	blick	-0.0632975
-4.31631	omgongen	-0.0632975
-4.31631	havdade	-0.0632975
-3.9627936	halva	-0.0632975
-4.31631	ljudet	-0.0632975
-4.31631	pojke	-0.0632975
-4.131418	marke	-0.0632975
-3.8193018	gula	-0.0632975
-4.31631	sidorna	-0.0632975
-4.31631	escape	-0.0632975
-4.31631	pie	-0.0632975
-4.31631	knekt	-0.0632975
-4.31631	chauffor	-0.0632975
-4.31631	invandig	-0.0632975
-3.9627936	sida	-0.15058674
-4.31631	installera	-0.0632975
-4.31631	diagnostik	-0.0632975
-4.31631	halvvags	-0.0632975
-4.31631	bildskarm	-0.0632975
-4.31631	rostmeddelande	-0.0632975
-4.131418	vakna	-0.20183489
-4.31631	vader	-0.0632975
-4.31631	logga	-0.0632975
-4.131418	trehundrafemtiosex	-0.20183489
-4.31631	trehundranittiotvo	-0.0632975
-4.31631	etthundrasextioett	-0.0632975
-4.31631	trehundranittiosju	-0.0632975
-4.31631	vanligt	-0.0632975
-4.31631	matbordslampor	-0.0632975
-4.31631	blandar	-0.0632975
-4.31631	skickar	-0.0632975
-4.131418	taket	-0.0632975
-4.31631	poven	-0.0632975
-3.491849	tycker	-0.06329753
-4.31631	intressant	-0.0632975
-4.131418	notera	-0.0632975
-3.625418	sen	-0.0632975
-4.31631	fyrahundrasjuttioett	-0.0632975
-4.31631	protestantiska	-0.0632975
-4.131418	slagit	-0.0632975
-4.31631	principer	-0.0632975
-4.31631	solidarisk	-0.0632975
-4.31631	fordelning	-0.0632975
-4.31631	kostnaderna	-0.0632975
-4.31631	telefonabonnemang	-0.0632975
-3.8193018	delar	-0.25694183
-4.31631	dystra	-0.0632975
-4.31631	pappans	-0.0632975
-3.625418	hemma	-0.10475273
-4.31631	avta	-0.0632975
-4.131418	nummer	-0.0632975
-4.31631	sysselsattningen	-0.0632975
-3.9627936	procent	-0.15058674
-3.9627936	regeringens	-0.0632975
-4.31631	alkoholpolitiska	-0.0632975
-4.31631	proposition	-0.0632975
-4.31631	skjutits	-0.0632975
-3.9627936	valet	-0.15058674
-4.131418	september	-0.15058674
-4.31631	rotfrukterna	-0.0632975
-3.9627936	bjuder	-0.15058674
-4.131418	lagom	-0.0632975
-4.31631	tuggmotstond	-0.0632975
-4.31631	syrliga	-0.0632975
-4.131418	sosen	-0.0632975
-4.31631	smaklokarna	-0.0632975
-4.31631	darra	-0.0632975
-4.31631	fortjusning	-0.0632975
-4.31631	grannar	-0.0632975
-4.131418	hjalpte	-0.0632975
-4.31631	slapa	-0.0632975
-3.9627936	bostaden	-0.15058674
-4.131418	ringa	-0.0632975
-4.131418	ambulans	-0.0632975
-3.9627936	sidan	-0.0632975
-4.31631	traningsplan	-0.0632975
-4.31631	oppnade	-0.0632975
-4.31631	oga	-0.0632975
-3.9627936	stallde	-0.0632975
-4.31631	sydliga	-0.0632975
-4.31631	dialekt	-0.0632975
-4.31631	biologiska	-0.0632975
-3.8193018	far	-0.0632975
-3.8193018	annan	-0.098582774
-4.31631	beundrar	-0.0632975
-4.31631	haktade	-0.0632975
-4.31631	spanar	-0.0632975
-4.31631	kopplingar	-0.0632975
-4.31631	lakarens	-0.0632975
-4.31631	svindlande	-0.0632975
-3.711629	affarer	-0.113540724
-4.131418	priserna	-0.0632975
-3.8193018	forandrats	-0.0632975
-4.31631	form	-0.0632975
-4.131418	lattare	-0.0632975
-4.31631	hojningar	-0.0632975
-4.131418	knappast	-0.0632975
-4.31631	stamgasterna	-0.0632975
-4.131418	upprorda	-0.20183489
-3.8193018	berattade	-0.10475273
-4.31631	arbetskamraten	-0.0632975
-3.9627936	kopplade	-0.0632975
-4.31631	forutbestamd	-0.0632975
-4.31631	fusk	-0.0632975
-4.31631	sjuhundra	-0.0632975
-4.131418	femhundrafyrtiotvo	-0.20183489
-4.31631	fyrahundranittiosex	-0.0632975
-4.31631	trapphuset	-0.0632975
-4.31631	rokfylldes	-0.0632975
-4.31631	tant	-0.0632975
-4.31631	brote	-0.0632975
-4.31631	kallaren	-0.0632975
-4.31631	naturligt	-0.0632975
-4.131418	stalla	-0.15058674
-4.131418	horet	-0.0632975
-4.31631	borstades	-0.0632975
-4.31631	vit	-0.0632975
-4.31631	rosett	-0.0632975
-3.625418	vita	-0.0632975
-4.31631	knastrumpor	-0.0632975
-4.31631	skor	-0.0632975
-4.31631	djupt	-0.0632975
-3.8193018	natur	-0.12706538
-3.8193018	bryr	-0.25694183
-3.5535185	halften	-0.49997985
-4.131418	tillbringade	-0.0632975
-4.31631	forberedelser	-0.0632975
-4.31631	femhundratrettiotre	-0.0632975
-4.31631	fyrahundrafemtiosju	-0.0632975
-3.711629	vogar	-0.0632975
-4.131418	smoningom	-0.0632975
-3.5535185	kanna	-0.098582774
-3.711629	illa	-0.113540724
-4.31631	andedrakt	-0.0632975
-4.31631	gevaren	-0.0632975
-4.31631	forut	-0.0632975
-4.31631	knallat	-0.0632975
-4.31631	hordes	-0.0632975
-4.31631	champagnekorkar	-0.0632975
-4.31631	hogar	-0.0632975
-4.31631	post	-0.0632975
-3.9627936	lyssna	-0.25694183
-4.31631	kopia	-0.0632975
-4.31631	socialnamnden	-0.0632975
-4.131418	forran	-0.0632975
-4.31631	poliserna	-0.0632975
-4.31631	hastighetskontroll	-0.0632975
-4.31631	boset	-0.0632975
-4.131418	aktiv	-0.0632975
-3.711629	varre	-0.21069114
-3.8193018	hus	-0.0632975
-4.31631	dyrare	-0.0632975
-4.131418	monaden	-0.20183489
-4.31631	tank	-0.0632975
-4.31631	forfattarna	-0.0632975
-4.131418	kallar	-0.0632975
-4.31631	vetenskapens	-0.0632975
-4.31631	verktyg	-0.0632975
-3.711629	femtio	-0.10475273
-4.131418	niohundratrettio	-0.20183489
-4.31631	femtiofem	-0.0632975
-4.31631	trehundrafemtiofyra	-0.0632975
-4.31631	kvalitetsstod	-0.0632975
-4.31631	efterhand	-0.0632975
-4.31631	initialskede	-0.0632975
-4.31631	gynna	-0.0632975
-4.31631	producenterna	-0.0632975
-4.31631	valutbildad	-0.0632975
-4.31631	kompetent	-0.0632975
-3.9627936	arbetskraft	-0.0632975
-4.31631	konkurrensen	-0.0632975
-4.31631	tillverkning	-0.0632975
-4.131418	avancerade	-0.0632975
-4.131418	produkter	-0.0632975
-3.625418	manniskan	-0.10475273
-4.31631	individ	-0.0632975
-4.31631	kollektivvarelse	-0.0632975
-4.31631	flock	-0.0632975
-4.31631	sag	-0.0632975
-3.9627936	speciellt	-0.0632975
-4.131418	partner	-0.0632975
-4.31631	valgorenhet	-0.0632975
-3.8193018	hjalper	-0.0632975
-4.31631	utslagna	-0.0632975
-4.31631	synd	-0.0632975
-3.9627936	filmer	-0.0632975
-4.31631	bre	-0.0632975
-4.31631	talang	-0.0632975
-4.31631	favoritnjutningsmedel	-0.0632975
-4.31631	ovrigt	-0.0632975
-4.31631	champagne	-0.0632975
-4.31631	froerna	-0.0632975
-4.31631	mognat	-0.0632975
-4.31631	ordentligt	-0.0632975
-4.131418	samlas	-0.0632975
-3.711629	anvanda	-0.0632975
-4.31631	blomkol	-0.0632975
-4.31631	vitlok	-0.0632975
-4.31631	potatis	-0.0632975
-4.131418	vitaminer	-0.0632975
-4.131418	mineraler	-0.0632975
-4.31631	skotte	-0.0632975
-4.131418	traning	-0.0632975
-4.31631	fungerade	-0.0632975
-4.31631	tavlingarna	-0.0632975
-4.31631	medverka	-0.0632975
-4.31631	slipper	-0.0632975
-4.31631	missar	-0.0632975
-4.31631	marknadsfora	-0.0632975
-4.31631	moda	-0.0632975
-4.31631	noggrannhet	-0.0632975
-4.131418	levande	-0.0632975
-4.31631	anklaga	-0.0632975
-4.31631	obeslutsamhet	-0.0632975
-4.131418	skolans	-0.0632975
-4.131418	styrelse	-0.0632975
-4.31631	tillfrogats	-0.0632975
-4.31631	erhollande	-0.0632975
-3.9627936	information	-0.12706538
-4.31631	foralder	-0.0632975
-4.31631	syskon	-0.0632975
-4.31631	behova	-0.0632975
-4.31631	myterna	-0.0632975
-4.31631	barns	-0.0632975
-4.31631	belysta	-0.0632975
-4.31631	presenterade	-0.0632975
-4.131418	karriar	-0.0632975
-4.31631	bredbent	-0.0632975
-4.31631	skakar	-0.0632975
-4.31631	stangerna	-0.0632975
-3.5535185	naturligtvis	-0.0632975
-4.131418	varmt	-0.0632975
-4.31631	ansiktet	-0.0632975
-3.9627936	exakt	-0.0632975
-4.31631	formiddags	-0.0632975
-4.131418	okant	-0.0632975
-3.9627936	gemensamt	-0.0632975
-4.31631	lutar	-0.0632975
-4.31631	topp	-0.0632975
-4.31631	speciell	-0.0632975
-4.31631	konstruktionsjobb	-0.0632975
-4.31631	komponenttillverkning	-0.0632975
-4.31631	dromde	-0.0632975
-4.31631	forfarligt	-0.0632975
-4.31631	ikladdes	-0.0632975
-4.31631	avfarden	-0.0632975
-4.31631	blo	-0.0632975
-4.31631	regnkappor	-0.0632975
-4.31631	botens	-0.0632975
-3.711629	namn	-0.10475273
-4.131418	bokstaver	-0.0632975
-4.131418	brostet	-0.20183489
-4.31631	stoter	-0.0632975
-4.31631	motsagelser	-0.0632975
-4.31631	hindret	-0.0632975
-4.31631	effekterna	-0.0632975
-4.131418	okanda	-0.20183489
-4.31631	folkomrostningarna	-0.0632975
-4.131418	hollas	-0.20183489
-4.131418	sextiosex	-0.0632975
-4.31631	fyrahundrasextiootta	-0.0632975
-4.31631	fornarmad	-0.0632975
-4.31631	resehjulet	-0.0632975
-4.31631	laddas	-0.0632975
-4.31631	hadanefter	-0.0632975
-4.31631	charterresor	-0.0632975
-4.31631	storstader	-0.0632975
-4.31631	badorter	-0.0632975
-4.31631	lampade	-0.0632975
-4.31631	uppflammande	-0.0632975
-4.31631	minnesbilder	-0.0632975
-4.31631	dromsyner	-0.0632975
-4.31631	vansterpartiet	-0.0632975
-3.711629	inne	-0.21069114
-4.31631	linje	-0.0632975
-4.131418	drog	-0.0632975
-4.31631	longdraget	-0.0632975
-4.31631	ylande	-0.0632975
-4.31631	snorskogen	-0.0632975
-4.31631	stammarna	-0.0632975
-4.131418	tittade	-0.0632975
-4.31631	syftet	-0.0632975
-4.31631	kuppen	-0.0632975
-3.8193018	radda	-0.0632975
-4.31631	unionen	-0.0632975
-4.31631	krismedvetna	-0.0632975
-4.31631	realistiska	-0.0632975
-4.131418	presentera	-0.0632975
-3.9627936	resultat	-0.0632975
-4.31631	lakarstamman	-0.0632975
-3.9627936	vecka	-0.25694183
-4.131418	forklaringar	-0.0632975
-4.31631	bestamma	-0.0632975
-3.8193018	vagen	-0.0632975
-4.31631	hjartats	-0.0632975
-3.9627936	minsta	-0.0632975
-4.31631	kranskarl	-0.0632975
-3.9627936	tvartom	-0.10475273
-4.31631	hjalpt	-0.0632975
-4.31631	utredningsarbetet	-0.0632975
-4.131418	trettiotvo	-0.0632975
-4.31631	fyrahundraottiotre	-0.0632975
-4.31631	ottahundrasextiotre	-0.0632975
-3.8193018	sjuttionio	-0.0632975
-4.31631	fyrahundrasjuttio	-0.0632975
-3.8193018	fyrtiofem	-0.0632975
-4.131418	sexhundrasextiofyra	-0.20183489
-4.31631	ty	-0.0632975
-4.31631	skalden	-0.0632975
-4.31631	molar	-0.0632975
-4.31631	synes	-0.0632975
-4.31631	obekymrad	-0.0632975
-4.31631	sorjer	-0.0632975
-4.31631	oroar	-0.0632975
-4.31631	fann	-0.0632975
-4.31631	butikens	-0.0632975
-4.31631	fastkedjade	-0.0632975
-4.31631	butikslokalen	-0.0632975
-4.31631	onskade	-0.0632975
-4.31631	horstrona	-0.0632975
-4.131418	ogat	-0.0632975
-4.31631	vaccinet	-0.0632975
-4.31631	servisen	-0.0632975
-4.31631	ingick	-0.0632975
-4.31631	decimeterhog	-0.0632975
-4.31631	syltkruka	-0.0632975
-4.131418	tackt	-0.20183489
-4.31631	omknuten	-0.0632975
-4.31631	snore	-0.0632975
-3.5535185	holler	-0.12706538
-4.131418	passerade	-0.0632975
-4.31631	revy	-0.0632975
-4.131418	livsmedel	-0.20183489
-4.131418	markerade	-0.0632975
-4.131418	feta	-0.0632975
-4.131418	nyttiga	-0.0632975
-4.31631	naringsrika	-0.0632975
-4.131418	tider	-0.0632975
-4.31631	spalt	-0.0632975
-4.31631	historisk	-0.0632975
-4.31631	spanningsberattelse	-0.0632975
-4.131418	trampar	-0.0632975
-4.31631	modosamt	-0.0632975
-4.31631	tempot	-0.0632975
-4.131418	tung	-0.0632975
-4.31631	ardennerhast	-0.0632975
-4.31631	lerig	-0.0632975
-4.31631	voroker	-0.0632975
-4.131418	befriande	-0.0632975
-4.31631	sorgligt	-0.0632975
-4.31631	tsaren	-0.0632975
-4.31631	kejserligt	-0.0632975
-4.31631	etui	-0.0632975
-4.31631	juvelbesatt	-0.0632975
-4.31631	orn	-0.0632975
-4.31631	cigarretter	-0.0632975
-4.31631	forutsattningen	-0.0632975
-4.31631	tackar	-0.0632975
-3.8193018	ja	-0.12706538
-4.31631	inbjudan	-0.0632975
-3.9627936	yngre	-0.0632975
-3.9627936	bror	-0.0632975
-4.31631	hockeylirare	-0.0632975
-4.31631	elitnivo	-0.0632975
-4.31631	skiftande	-0.0632975
-4.131418	utnyttja	-0.0632975
-4.31631	stjarnstatus	-0.0632975
-4.31631	affarsvarlden	-0.0632975
-3.8193018	tjugonio	-0.0632975
-4.31631	sexhundrasextionio	-0.0632975
-4.31631	tvohundraottiotre	-0.0632975
-4.131418	femhundrafemtiofyra	-0.20183489
-3.9627936	rantorna	-0.0632975
-4.31631	forutspor	-0.0632975
-4.31631	konkurser	-0.0632975
-4.31631	arbetsloshet	-0.0632975
-4.31631	byggbranschen	-0.0632975
-3.8193018	fortsatte	-0.0632975
-4.31631	blixtra	-0.0632975
-4.31631	braka	-0.0632975
-4.31631	oskan	-0.0632975
-4.31631	reporter	-0.0632975
-4.31631	friad	-0.0632975
-4.31631	misstankar	-0.0632975
-4.31631	syntes	-0.0632975
-4.31631	plogade	-0.0632975
-3.9627936	stund	-0.0632975
-4.131418	tystnad	-0.0632975
-4.131418	ringen	-0.0632975
-3.9627936	mitten	-0.0632975
-4.31631	presskontor	-0.0632975
